{"learner":{"attributes":{"best_iteration":"15","best_ntree_limit":"16","best_score":"0.682702953676917","scikit_learn":"{\"use_label_encoder\": null, \"n_estimators\": 500, \"objective\": \"binary:logistic\", \"max_depth\": 6, \"max_leaves\": null, \"max_bin\": null, \"grow_policy\": null, \"learning_rate\": 0.05, \"verbosity\": null, \"booster\": null, \"tree_method\": \"hist\", \"gamma\": null, \"min_child_weight\": null, \"max_delta_step\": null, \"subsample\": 0.8, \"sampling_method\": null, \"colsample_bytree\": 0.8, \"colsample_bylevel\": null, \"colsample_bynode\": null, \"reg_alpha\": null, \"reg_lambda\": null, \"scale_pos_weight\": null, \"base_score\": null, \"missing\": NaN, \"num_parallel_tree\": null, \"random_state\": 42, \"n_jobs\": null, \"monotone_constraints\": null, \"interaction_constraints\": null, \"importance_type\": null, \"gpu_id\": null, \"validate_parameters\": null, \"predictor\": null, \"enable_categorical\": false, \"feature_types\": null, \"max_cat_to_onehot\": null, \"max_cat_threshold\": null, \"eval_metric\": \"auc\", \"early_stopping_rounds\": 30, \"callbacks\": null, \"kwargs\": {\"device\": \"cuda\"}, \"classes_\": [0, 1], \"n_classes_\": 2, \"evals_result_\": {\"validation_0\": {\"auc\": [0.6595570377513482, 0.6730485910211079, 0.6720496714168364, 0.6779215329118897, 0.6805376977749206, 0.6773924961605772, 0.6791135397692775, 0.677052082217222, 0.6814049162470088, 0.6814361673631201, 0.6818602896532019, 0.680815609486053, 0.681447328476017, 0.6826538447801708, 0.6816381835065538, 0.682702953676917, 0.6820422157934212, 0.6798445926640238, 0.6774728561734348, 0.6788713436194149, 0.6775610289653202, 0.6786514696953463, 0.6769427033108325, 0.6772284278009929, 0.677755232329726, 0.6782998946390942, 0.6764806332369013, 0.6763935765563056, 0.678236276295582, 0.6766647915996999, 0.677486249508911, 0.6788702275081253, 0.6775587967427408, 0.6763779509982499, 0.6782161862923676, 0.6777742062216507, 0.6774315600557163, 0.6771737383477981, 0.6769527483124397, 0.6756089503196543, 0.6768668077431337, 0.6760140987178114, 0.6753689863923712, 0.6742484106575235, 0.675645781992214, 0.6751569252473303]}}, \"_estimator_type\": \"classifier\"}"},"feature_names":[],"feature_types":[],"gradient_booster":{"model":{"gbtree_model_param":{"num_parallel_tree":"1","num_trees":"46","size_leaf_vector":"0"},"tree_info":[0,0,0,0,0,0,0,0,0,0,0,0,0,0,0,0,0,0,0,0,0,0,0,0,0,0,0,0,0,0,0,0,0,0,0,0,0,0,0,0,0,0,0,0,0,0],"trees":[{"base_weights":[-1.66387E0,-1.1151515E0,-1.7148595E0,-1.3967214E0,-8.635098E-1,-1.5823666E0,-1.7913439E0,-1.4602076E0,-2E-1,-7.092199E-1,-1.3580247E0,-1.6623853E0,-1.4387435E0,-1.8178138E0,-1.5384616E0,-1.4947368E0,2.5E-2,2.727273E-2,-7.692308E-1,-8.381743E-1,4.4444446E-2,1.1111111E-2,-1.4736842E0,-1.6699507E0,-4E-1,-9.09091E-3,-1.4472574E0,-1.8231084E0,-1.1818181E0,-1.4215385E0,-1.8016529E0,-9.09091E-3,-1.5251799E0,-5.555556E-2,-0E0,8.695652E-2,-9.189189E-1,-6.363636E-2,4.2105263E-1,-0E0,-1.5555556E0,-8.366337E-2,-6.666667E-1,-4.5454547E-2,2.5E-2,-1.7894737E0,-1.3937948E0,-2.5E-2,-1.8239509E0,-1.3513514E0,-9.09091E-3,-1.4539683E0,-2.857143E-1,-1.8290598E0,-2.5E-2,-1.1111111E-2,-7.728938E-2,2.9411767E-2,-4.0000003E-2,-3.723404E-2,-8.421053E-2,-5.882353E-3,3.6000002E-2,-4.117647E-2,-8.305085E-2,-5E-2,-0E0,-9.090909E-2,-2.5E-2,-4.0909093E-2,-7.0927314E-2,-9.352397E-2,-8.735333E-2,-0E0,-7.575758E-2,-7.385621E-2,-2.3076924E-2,-5.555556E-2,3.3333335E-2,-2.5E-2,-9.2920355E-2],"categories":[],"categories_nodes":[],"categories_segments":[],"categories_sizes":[],"default_left":[0,0,0,0,0,0,0,0,0,0,0,0,0,0,0,0,0,0,0,0,0,0,0,0,0,0,0,0,0,0,0,0,0,0,0,0,0,0,0,0,0,0,0,0,0,0,0,0,0,0,0,0,0,0,0,0,0,0,0,0,0,0,0,0,0,0,0,0,0,0,0,0,0,0,0,0,0,0,0,0,0],"id":0,"left_children":[1,3,5,7,9,11,13,15,17,19,21,23,25,27,29,31,-1,-1,33,35,37,-1,39,41,43,-1,45,47,49,51,53,-1,55,-1,-1,57,59,-1,61,-1,63,-1,65,-1,-1,67,69,-1,71,73,-1,75,77,79,-1,-1,-1,-1,-1,-1,-1,-1,-1,-1,-1,-1,-1,-1,-1,-1,-1,-1,-1,-1,-1,-1,-1,-1,-1,-1,-1],"loss_changes":[5.144336E1,1.048494E1,1.4828125E1,5.5010834E0,5.8846664E0,5.038208E0,4.5498047E0,5.637558E0,2.5412586E0,6.8890266E0,4.0285873E0,3.2357178E0,2.291809E0,1.1723633E0,8.3932495E-1,2.5705109E0,0E0,0E0,8.547008E-1,4.5805435E0,6.1165338E0,0E0,2.2924004E0,2.3547363E-1,2.172727E0,0E0,1.8419495E0,1.7822266E-1,1.6191654E0,2.5773926E0,1.6461182E-1,0E0,1.5226288E0,0E0,0E0,3.0271099E0,6.1463356E0,0E0,1.614613E0,0E0,2.1713257E-2,0E0,6.666666E-1,0E0,0E0,1.4592743E-1,1.8241882E0,0E0,2.2729492E-1,2.0475025E0,0E0,1.1279755E0,3.4920633E0,2.1166992E-1,0E0,0E0,0E0,0E0,0E0,0E0,0E0,0E0,0E0,0E0,0E0,0E0,0E0,0E0,0E0,0E0,0E0,0E0,0E0,0E0,0E0,0E0,0E0,0E0,0E0,0E0,0E0],"parents":[2147483647,0,0,1,1,2,2,3,3,4,4,5,5,6,6,7,7,8,8,9,9,10,10,11,11,12,12,13,13,14,14,15,15,18,18,19,19,20,20,22,22,23,23,24,24,26,26,27,27,28,28,29,29,30,30,32,32,35,35,36,36,38,38,40,40,42,42,45,45,46,46,48,48,49,49,51,51,52,52,53,53],"right_children":[2,4,6,8,10,12,14,16,18,20,22,24,26,28,30,32,-1,-1,34,36,38,-1,40,42,44,-1,46,48,50,52,54,-1,56,-1,-1,58,60,-1,62,-1,64,-1,66,-1,-1,68,70,-1,72,74,-1,76,78,80,-1,-1,-1,-1,-1,-1,-1,-1,-1,-1,-1,-1,-1,-1,-1,-1,-1,-1,-1,-1,-1,-1,-1,-1,-1,-1,-1],"split_conditions":[-1.3526834E0,-1.4269005E-1,-1.9550651E-1,1.2154307E0,-1.3863721E0,4.7770748E-1,1.4523801E0,-1.1248671E0,1.2461845E0,8.146908E-1,-1.5252916E0,5.09886E0,-1.6189826E0,1.2612869E0,9.437382E-1,-9.33182E-1,2.5E-2,2.727273E-2,-1.07971564E-1,-5.0526905E-1,-1.7955577E0,1.1111111E-2,-8.1860445E-2,2.274442E0,1.6850544E0,-9.09091E-3,-6.3145906E-1,-1.2905041E0,1.5625091E0,2.2034798E0,3.5774655E0,-9.09091E-3,-3.0790558E0,-5.555556E-2,-0E0,-1.5430627E0,2.1105795E0,-6.363636E-2,1E0,-0E0,3.1794944E-1,-8.366337E-2,-4.467651E-1,-4.5454547E-2,2.5E-2,9.668453E-1,-4.994199E-1,-2.5E-2,1.6312759E-1,-9.1069096E-1,-9.09091E-3,9.3811417E-1,1.7349948E-1,6.273095E-1,-2.5E-2,-1.1111111E-2,-7.728938E-2,2.9411767E-2,-4.0000003E-2,-3.723404E-2,-8.421053E-2,-5.882353E-3,3.6000002E-2,-4.117647E-2,-8.305085E-2,-5E-2,-0E0,-9.090909E-2,-2.5E-2,-4.0909093E-2,-7.0927314E-2,-9.352397E-2,-8.735333E-2,-0E0,-7.575758E-2,-7.385621E-2,-2.3076924E-2,-5.555556E-2,3.3333335E-2,-2.5E-2,-9.2920355E-2],"split_indices":[20,12,20,17,22,12,13,22,17,15,5,6,18,17,20,6,0,0,2,13,9,0,12,9,8,0,2,22,5,6,0,0,9,0,0,20,16,0,41,0,12,0,2,0,0,9,2,0,12,5,0,22,2,12,0,0,0,0,0,0,0,0,0,0,0,0,0,0,0,0,0,0,0,0,0,0,0,0,0,0,0],"split_type":[0,0,0,0,0,0,0,0,0,0,0,0,0,0,0,0,0,0,0,0,0,0,0,0,0,0,0,0,0,0,0,0,0,0,0,0,0,0,0,0,0,0,0,0,0,0,0,0,0,0,0,0,0,0,0,0,0,0,0,0,0,0,0,0,0,0,0,0,0,0,0,0,0,0,0,0,0,0,0,0,0],"sum_hessian":[1.906E3,1.64E2,1.742E3,7.525E1,8.875E1,6.455E2,1.0965E3,7.125E1,4E0,6.95E1,1.925E1,4.0775E2,2.3775E2,9.87E2,1.095E2,7.025E1,1E0,1.75E0,2.25E0,5.925E1,1.025E1,1.25E0,1.8E1,4.05E2,2.75E0,1.75E0,2.36E2,9.77E2,1E1,8.025E1,2.925E1,1.75E0,6.85E1,1.25E0,1E0,4.75E0,5.45E1,1.75E0,8.5E0,1E0,1.7E1,4.03E2,2E0,1.75E0,1E0,2.75E1,2.085E2,1E0,9.76E2,8.25E0,1.75E0,7.775E1,2.5E0,2.825E1,1E0,1.25E0,6.725E1,3.25E0,1.5E0,4.6E1,8.5E0,3.25E0,5.25E0,3.25E0,1.375E1,1E0,1E0,2.65E1,1E0,1E1,1.985E2,5.935E2,3.825E2,1E0,7.25E0,7.55E1,2.25E0,1.25E0,1.25E0,1E0,2.725E1],"tree_param":{"num_deleted":"0","num_feature":"53","num_nodes":"81","size_leaf_vector":"0"}},{"base_weights":[-1.5805575E0,-1.2477679E0,-1.6611707E0,-1.4032232E0,-1.0929307E0,-1.5522418E0,-1.7186903E0,-8.003294E-1,-1.4374082E0,-5.7527554E-1,-1.1808658E0,-1.5646499E0,-7.3037493E-1,-1.7451708E0,-1.4677334E0,2.776513E-2,-1.0793993E0,-5.4995435E-1,-1.4549501E0,-1.0936987E0,2.4605623E-2,-5.0763446E-1,-1.2117974E0,-1.6810031E0,-1.4960222E0,2.9496754E-2,-1.0820775E0,-8.735026E-2,-3.0570647E-2,-2.3528439E-1,-1.4962666E0,-2.3068172E-1,-1.3156698E0,-5.1566433E-2,1.0948504E-2,-1.5476066E0,-1.2779372E0,-8.075906E-2,-7.377298E-1,7.9174805E-1,-5.028483E-1,-1.3068804E0,9.591451E-1,-1.0523502E0,-1.3674047E0,-1.4080289E-2,-1.6943035E0,-5.327112E-1,-1.5056986E0,-7.688501E-2,-2.911309E-1,-5.3623617E-2,3.532737E-2,-1.25908E0,-1.5959209E0,1.3443357E-2,-3.137574E-2,-7.957774E-2,-2.1129275E-2,-2.6741564E-2,-7.833158E-2,1.1735227E-2,-6.619287E-2,1.8335644E-2,-5.0442953E-2,6.104914E-2,-1.9167468E-2,3.2802366E-2,-3.7901875E-2,-7.653732E-2,-1.7922562E-2,6.1353605E-2,1.1754333E-2,-3.769464E-2,-6.248156E-2,-7.959385E-2,-5.5837374E-2,-2.5619296E-2,-8.536895E-2,-5.6995537E-2,3.5803538E-2,-7.026255E-2,-8.116985E-2,2.222322E-2,-4.270708E-2,-6.623707E-2,1.3171713E-2,-8.148408E-2,-2.6130153E-2],"categories":[],"categories_nodes":[],"categories_segments":[],"categories_sizes":[],"default_left":[0,0,0,0,0,0,0,0,0,0,0,0,0,0,0,0,0,0,0,0,0,0,0,0,0,0,0,0,0,0,0,0,0,0,0,0,0,0,0,0,0,0,0,0,0,0,0,0,0,0,0,0,0,0,0,0,0,0,0,0,0,0,0,0,0,0,0,0,0,0,0,0,0,0,0,0,0,0,0,0,0,0,0,0,0,0,0,0,0],"id":1,"left_children":[1,3,5,7,9,11,13,15,17,19,21,23,25,27,29,-1,31,33,35,37,39,41,43,45,47,-1,49,-1,-1,51,53,55,57,-1,-1,59,61,-1,63,65,67,69,71,73,75,-1,77,79,81,-1,83,-1,-1,85,87,-1,-1,-1,-1,-1,-1,-1,-1,-1,-1,-1,-1,-1,-1,-1,-1,-1,-1,-1,-1,-1,-1,-1,-1,-1,-1,-1,-1,-1,-1,-1,-1,-1,-1],"loss_changes":[4.9618652E1,7.6070557E0,7.0317383E0,2.6825256E0,8.186859E0,4.418091E0,4.109375E0,5.228275E0,1.920105E0,9.428972E0,2.8321533E0,1.7675781E0,5.275262E0,8.0908203E-1,3.238327E0,0E0,1.7993002E0,2.0745745E0,8.227234E-1,1.8229561E0,6.4648404E0,1.1795756E1,2.4700165E0,3.0757446E0,2.427063E0,0E0,2.5210953E0,0E0,0E0,3.5149915E0,3.4484863E-1,8.6178815E-1,1.2961311E0,0E0,0E0,1.2303467E0,4.7843857E0,0E0,3.8112102E0,3.745121E0,3.3056643E0,7.7706814E-1,4.38725E-1,3.895218E0,2.520691E0,0E0,2.0442505E0,4.60205E0,1.7671509E0,0E0,2.137511E0,0E0,0E0,3.7684708E0,1.5542908E0,0E0,0E0,0E0,0E0,0E0,0E0,0E0,0E0,0E0,0E0,0E0,0E0,0E0,0E0,0E0,0E0,0E0,0E0,0E0,0E0,0E0,0E0,0E0,0E0,0E0,0E0,0E0,0E0,0E0,0E0,0E0,0E0,0E0,0E0],"parents":[2147483647,0,0,1,1,2,2,3,3,4,4,5,5,6,6,7,7,8,8,9,9,10,10,11,11,12,12,13,13,14,14,16,16,17,17,18,18,19,19,20,20,21,21,22,22,23,23,24,24,26,26,29,29,30,30,31,31,32,32,35,35,36,36,38,38,39,39,40,40,41,41,42,42,43,43,44,44,46,46,47,47,48,48,50,50,53,53,54,54],"right_children":[2,4,6,8,10,12,14,16,18,20,22,24,26,28,30,-1,32,34,36,38,40,42,44,46,48,-1,50,-1,-1,52,54,56,58,-1,-1,60,62,-1,64,66,68,70,72,74,76,-1,78,80,82,-1,84,-1,-1,86,88,-1,-1,-1,-1,-1,-1,-1,-1,-1,-1,-1,-1,-1,-1,-1,-1,-1,-1,-1,-1,-1,-1,-1,-1,-1,-1,-1,-1,-1,-1,-1,-1,-1,-1],"split_conditions":[-8.63269E-1,-1.1436549E-1,-1.7568551E-1,-1.4194529E0,-1.8159307E0,3.1460402E0,1.4523801E0,-1.9589906E0,-1.6356854E0,4.509249E-2,-1.1831326E0,-5.0526905E-1,-1.8852937E-1,1E0,-7.629939E-1,2.776513E-2,1.1758901E0,1.0064497E0,9.432001E-2,-5.9496064E-2,3.091576E-1,-1.2924354E0,-8.105098E-1,-1.2981374E0,-1.2156799E0,2.9496754E-2,-7.9477936E-1,-8.735026E-2,-3.0570647E-2,9.139366E-1,-8.788349E-2,-1.02458395E-1,-3.995545E-1,-5.1566433E-2,1.0948504E-2,-2.4648614E0,1.10216714E-1,-8.075906E-2,-5.018726E-1,1.6850544E0,-1.7891616E-1,3.3674607E-1,8.653749E-2,-5.9105915E-1,-1.1467191E0,-1.4080289E-2,-1.9589906E0,-1.2981374E0,2.551294E-1,-7.688501E-2,1.7829022E-1,-5.3623617E-2,3.532737E-2,-1.0020911E-1,1E0,1.3443357E-2,-3.137574E-2,-7.957774E-2,-2.1129275E-2,-2.6741564E-2,-7.833158E-2,1.1735227E-2,-6.619287E-2,1.8335644E-2,-5.0442953E-2,6.104914E-2,-1.9167468E-2,3.2802366E-2,-3.7901875E-2,-7.653732E-2,-1.7922562E-2,6.1353605E-2,1.1754333E-2,-3.769464E-2,-6.248156E-2,-7.959385E-2,-5.5837374E-2,-2.5619296E-2,-8.536895E-2,-5.6995537E-2,3.5803538E-2,-7.026255E-2,-8.116985E-2,2.222322E-2,-4.270708E-2,-6.623707E-2,1.3171713E-2,-8.148408E-2,-2.6130153E-2],"split_indices":[22,13,10,18,22,4,13,10,19,4,14,13,8,47,22,0,17,7,18,14,13,14,10,1,4,0,10,0,0,3,11,1,2,0,0,22,18,0,3,8,7,18,1,11,22,0,10,1,11,0,22,0,0,11,52,0,0,0,0,0,0,0,0,0,0,0,0,0,0,0,0,0,0,0,0,0,0,0,0,0,0,0,0,0,0,0,0,0,0],"split_type":[0,0,0,0,0,0,0,0,0,0,0,0,0,0,0,0,0,0,0,0,0,0,0,0,0,0,0,0,0,0,0,0,0,0,0,0,0,0,0,0,0,0,0,0,0,0,0,0,0,0,0,0,0,0,0,0,0,0,0,0,0,0,0,0,0,0,0,0,0,0,0,0,0,0,0,0,0,0,0,0,0,0,0,0,0,0,0,0,0],"sum_hessian":[1.9258369E3,3.7874997E2,1.5470869E3,1.8497456E2,1.9377539E2,5.44298E2,1.00278894E3,1.1235481E1,1.7373907E2,2.9232447E1,1.6454295E2,5.353123E2,8.9856615E0,9.016902E2,1.0109874E2,1.7490971E0,9.486383E0,3.9947104E0,1.6974437E2,1.5239301E1,1.3993145E1,7.9926734E0,1.5655028E2,1.898838E2,3.454285E2,1.7476234E0,7.238038E0,8.996937E2,1.9964442E0,2.4968586E0,9.860188E1,2.4961598E0,6.990224E0,2.246844E0,1.7478664E0,1.06338875E2,6.3405495E1,4.7472777E0,1.0492023E1,5.497038E0,8.496107E0,5.2441554E0,2.7485182E0,8.115523E1,7.539505E1,1.9965057E0,1.878873E2,3.992739E0,3.4143576E2,3.9934793E0,3.2445588E0,1.2484293E0,1.2484293E0,3.3205086E1,6.53968E1,1.2478216E0,1.2483382E0,4.7429724E0,2.2472515E0,2.4975297E0,1.0384135E2,1.7470052E0,6.165849E1,1.9985217E0,8.493502E0,3.9977195E0,1.4993185E0,1.2497528E0,7.2463546E0,3.7459788E0,1.4981763E0,1.4990888E0,1.2494295E0,3.421474E1,4.6940483E1,3.695222E1,3.844283E1,2.4955451E0,1.8539175E2,2.7451415E0,1.2475975E0,1.9119943E2,1.5023633E2,1.4979659E0,1.7465928E0,3.1956787E1,1.248297E0,6.2899952E1,2.496845E0],"tree_param":{"num_deleted":"0","num_feature":"53","num_nodes":"89","size_leaf_vector":"0"}},{"base_weights":[-1.4990525E0,-1.1903495E0,-1.5851289E0,-6.6049397E-1,-1.2594359E0,-1.5146565E0,-1.6725814E0,-8.6325794E-1,8.013878E-2,-1.4466506E0,-1.1462095E0,-1.5652703E0,-1.3365765E0,-1.4621423E0,-1.6919484E0,-9.496388E-1,3.9974775E-2,4.515754E-1,-6.185147E-1,-1.4646301E0,5.0046314E-3,-1.064672E0,-1.4314371E0,-1.5692021E0,-3.716635E-3,-1.4170432E0,-7.35678E-1,-1.5226178E0,-8.3622164E-1,-1.6969889E0,-1.0703303E0,4.2781592E-3,-1.1016626E0,7.3699564E-1,-3.183126E-2,1.3207582E-2,-5.195724E-2,-1.5031139E0,-7.1764344E-1,-1.0926089E0,-3.4803173E-1,-1.4764681E0,-1.2032065E-2,-1.572901E0,-1.7769245E-2,-1.4630376E0,-4.9376577E-1,-9.3446535E-1,4.32422E-2,-2.775061E-2,-1.5480945E0,1.5613439E-2,-1.105115E0,-1.4738916E0,-1.716517E0,4.0525626E-3,-6.859777E-2,-5.024436E-2,4.115582E-2,-5.9798453E-3,-6.069984E-2,4.8576422E-2,-9.504074E-3,-6.701242E-3,-7.57822E-2,-6.317837E-2,-1.0384753E-3,-3.7644602E-2,-5.852155E-2,-4.449081E-2,1.6573368E-2,-3.223336E-2,-7.66507E-2,-7.53527E-2,-8.22423E-2,-3.7310775E-2,-7.45487E-2,-3.862454E-2,3.728088E-2,3.790486E-2,-5.3488024E-2,-4.541205E-2,-7.991257E-2,-1.1359245E-2,-7.219427E-2,-7.7217974E-2,-2.333781E-2,-8.59064E-2,-2.8451277E-2],"categories":[],"categories_nodes":[],"categories_segments":[],"categories_sizes":[],"default_left":[0,0,0,0,0,0,0,0,0,0,0,0,0,0,0,0,0,0,0,0,0,0,0,0,0,0,0,0,0,0,0,0,0,0,0,0,0,0,0,0,0,0,0,0,0,0,0,0,0,0,0,0,0,0,0,0,0,0,0,0,0,0,0,0,0,0,0,0,0,0,0,0,0,0,0,0,0,0,0,0,0,0,0,0,0,0,0,0,0],"id":2,"left_children":[1,3,5,7,9,11,13,15,17,19,21,23,25,27,29,31,-1,33,35,37,-1,39,41,43,-1,45,47,49,51,53,55,57,59,61,-1,-1,-1,63,65,67,69,71,-1,73,-1,75,77,79,-1,-1,81,-1,83,85,87,-1,-1,-1,-1,-1,-1,-1,-1,-1,-1,-1,-1,-1,-1,-1,-1,-1,-1,-1,-1,-1,-1,-1,-1,-1,-1,-1,-1,-1,-1,-1,-1,-1,-1],"loss_changes":[4.859424E1,1.4478149E1,6.6035156E0,7.629734E0,6.161499E0,5.403076E0,1.8347168E-1,6.4483643E0,3.3248048E0,3.9066467E0,3.93396E0,3.6447754E0,8.187164E0,1.0852966E0,3.4301758E-2,5.5314407E0,0E0,3.0285501E0,1.9435917E0,2.7653198E0,0E0,3.3518524E0,2.2867432E0,2.314331E0,0E0,6.3804626E0,8.642108E0,5.114136E-1,2.7254877E0,1.5380859E-2,2.7016268E0,5.9792695E0,3.4816475E0,1.7048221E0,0E0,0E0,0E0,1.9627075E0,3.19423E0,3.8498077E0,3.4100623E0,1.2355576E0,0E0,5.419922E-1,0E0,2.0677185E0,3.8392067E0,5.9365273E0,0E0,0E0,2.690735E-1,0E0,1.5950732E0,3.1183777E0,4.1503906E-3,0E0,0E0,0E0,0E0,0E0,0E0,0E0,0E0,0E0,0E0,0E0,0E0,0E0,0E0,0E0,0E0,0E0,0E0,0E0,0E0,0E0,0E0,0E0,0E0,0E0,0E0,0E0,0E0,0E0,0E0,0E0,0E0,0E0,0E0],"parents":[2147483647,0,0,1,1,2,2,3,3,4,4,5,5,6,6,7,7,8,8,9,9,10,10,11,11,12,12,13,13,14,14,15,15,17,17,18,18,19,19,21,21,22,22,23,23,25,25,26,26,27,27,28,28,29,29,30,30,31,31,32,32,33,33,37,37,38,38,39,39,40,40,41,41,43,43,45,45,46,46,47,47,50,50,52,52,53,53,54,54],"right_children":[2,4,6,8,10,12,14,16,18,20,22,24,26,28,30,32,-1,34,36,38,-1,40,42,44,-1,46,48,50,52,54,56,58,60,62,-1,-1,-1,64,66,68,70,72,-1,74,-1,76,78,80,-1,-1,82,-1,84,86,88,-1,-1,-1,-1,-1,-1,-1,-1,-1,-1,-1,-1,-1,-1,-1,-1,-1,-1,-1,-1,-1,-1,-1,-1,-1,-1,-1,-1,-1,-1,-1,-1,-1,-1],"split_conditions":[-7.5222546E-1,-1.8826344E0,3.8804728E-1,5.0786465E-1,-4.200693E-1,9.504054E-1,-3.5380432E-1,1.1942874E0,1E0,-5.68739E-1,1E0,1E0,9.923244E-1,1.3296474E0,2.360889E0,-2.01215E0,3.9974775E-2,1E0,4.6226388E-1,1.1607877E0,5.0046314E-3,-7.744553E-1,2.4447615E0,1.2747416E0,-3.716635E-3,1.5179139E0,1.7275293E0,2.879618E-1,1.3798574E0,-1.337807E0,5.9612817E-1,-6.3145906E-1,-1.05801E0,1.5856115E0,-3.183126E-2,1.3207582E-2,-5.195724E-2,-1.7898941E0,-5.872988E-1,-1.5430627E0,-1.8328033E-1,-1.4743356E0,-1.2032065E-2,8.9887485E-2,-1.7769245E-2,-9.33182E-1,5.416473E-1,1.8608283E0,4.32422E-2,-2.775061E-2,-1.447453E0,1.5613439E-2,9.9955446E-1,2.1918156E0,6.54655E0,4.0525626E-3,-6.859777E-2,-5.024436E-2,4.115582E-2,-5.9798453E-3,-6.069984E-2,4.8576422E-2,-9.504074E-3,-6.701242E-3,-7.57822E-2,-6.317837E-2,-1.0384753E-3,-3.7644602E-2,-5.852155E-2,-4.449081E-2,1.6573368E-2,-3.223336E-2,-7.66507E-2,-7.53527E-2,-8.22423E-2,-3.7310775E-2,-7.45487E-2,-3.862454E-2,3.728088E-2,3.790486E-2,-5.3488024E-2,-4.541205E-2,-7.991257E-2,-1.1359245E-2,-7.219427E-2,-7.7217974E-2,-2.333781E-2,-8.59064E-2,-2.8451277E-2],"split_indices":[20,20,22,4,12,12,10,17,38,22,32,35,1,12,13,11,0,32,1,17,0,20,6,17,0,5,18,20,12,18,22,2,3,1,0,0,0,13,2,20,1,18,0,10,0,6,3,2,0,0,5,0,11,7,6,0,0,0,0,0,0,0,0,0,0,0,0,0,0,0,0,0,0,0,0,0,0,0,0,0,0,0,0,0,0,0,0,0,0],"split_type":[0,0,0,0,0,0,0,0,0,0,0,0,0,0,0,0,0,0,0,0,0,0,0,0,0,0,0,0,0,0,0,0,0,0,0,0,0,0,0,0,0,0,0,0,0,0,0,0,0,0,0,0,0,0,0,0,0,0,0,0,0,0,0,0,0,0,0,0,0,0,0,0,0,0,0,0,0,0,0,0,0,0,0,0,0,0,0,0,0],"sum_hessian":[1.8987799E3,4.1723715E2,1.4815427E3,4.9345413E1,3.6789172E2,8.3056396E2,6.5097876E2,3.8609634E1,1.0735778E1,1.3420818E2,2.3368355E2,6.406805E2,1.8988348E2,6.130815E1,5.896706E2,3.7110596E1,1.4990376E0,7.2402E0,3.4955776E0,1.3271854E2,1.4896387E0,1.8541272E2,4.827083E1,6.3894305E2,1.737407E0,1.6626111E2,2.3622372E1,5.4600155E1,6.707994E0,5.8321155E2,6.459073E0,5.2348557E0,3.1875742E1,5.991461E0,1.2487396E0,1.2482374E0,2.2473402E0,1.2525342E2,7.4651256E0,1.7795099E2,7.461727E0,4.628078E1,1.9900467E0,6.367069E2,2.2361298E0,1.5781473E2,8.446377E0,2.138275E1,2.2396212E0,1.9852539E0,5.2614902E1,1.2419785E0,5.466016E0,5.3095734E1,5.301158E2,1.492624E0,4.9664493E0,2.2431307E0,2.9917252E0,3.4837964E0,2.8391945E1,4.743499E0,1.247962E0,1.2420158E0,1.240114E2,3.7299373E0,3.7351882E0,3.5156555E1,1.4279443E2,3.9793544E0,3.4823728E0,3.7352538E0,4.254553E1,3.439014E2,2.9280554E2,6.9591894E0,1.5085555E2,7.203169E0,1.2432078E0,1.2419882E0,2.0140762E1,5.213537E0,4.7401363E1,1.9870784E0,3.4789371E0,4.9125103E1,3.9706318E0,5.28876E2,1.2398318E0],"tree_param":{"num_deleted":"0","num_feature":"53","num_nodes":"89","size_leaf_vector":"0"}},{"base_weights":[-1.4405148E0,-1.1579612E0,-1.5211543E0,-9.1654813E-1,-1.258037E0,-1.5645944E0,-1.3677247E0,-1.2787505E0,-6.087244E-1,-1.2703122E0,-5.619717E-1,-1.4723582E0,-1.6078427E0,-1.2502574E0,-1.6157264E0,-1.3431237E0,1.1463361E-1,-1.8591033E-1,-8.464346E-1,-1.3585564E0,-1.1460721E0,-6.088354E-2,-5.4964606E-2,-4.3243274E-1,-1.4801778E0,-1.6099535E0,-2.6361898E-2,-4.7042463E-2,-1.2684067E0,-9.530689E-1,-1.6461741E0,1.231577E-2,-1.3842702E0,-2.8324965E-2,3.7183587E-2,5.954296E-2,-7.7581847E-1,2.715119E-1,-9.759506E-1,-1.3727573E0,6.181603E-3,-9.5460254E-1,-1.3400133E0,4.4861067E-2,-7.2140235E-1,-4.3306712E-2,1.6911872E-2,-7.4261494E-2,-7.307362E-1,-1.6182667E0,-1.1696538E0,3.9581675E-2,-3.0740103E-2,-1.6588321E-1,-1.286042E0,1.7368158E-2,-6.483372E-2,-2.6380926E-2,-8.27489E-2,-3.5979E-2,-7.332959E-2,-2.2252362E-2,3.0417386E-2,1.41113745E-2,-5.068573E-2,-5.9061743E-2,6.3119374E-2,-5.1793654E-2,1.1579995E-2,-6.9077134E-2,-6.148627E-3,-1.371174E-2,-5.2016437E-2,-3.0070085E-2,-6.954749E-2,-5.3087543E-3,-5.0681364E-2,-5.3920507E-2,-9.776882E-3,-8.1199974E-2,-5.2815404E-2,-6.53167E-2,1.8317832E-2,-3.5731852E-2,3.792302E-2,-6.535449E-2,-3.3497296E-2],"categories":[],"categories_nodes":[],"categories_segments":[],"categories_sizes":[],"default_left":[0,0,0,0,0,0,0,0,0,0,0,0,0,0,0,0,0,0,0,0,0,0,0,0,0,0,0,0,0,0,0,0,0,0,0,0,0,0,0,0,0,0,0,0,0,0,0,0,0,0,0,0,0,0,0,0,0,0,0,0,0,0,0,0,0,0,0,0,0,0,0,0,0,0,0,0,0,0,0,0,0,0,0,0,0,0,0],"id":3,"left_children":[1,3,5,7,9,11,13,15,17,19,21,23,25,27,29,31,33,35,37,39,41,-1,43,45,47,49,-1,51,53,55,57,-1,59,-1,-1,61,63,65,67,69,-1,71,73,-1,75,-1,-1,-1,77,79,81,-1,-1,83,85,-1,-1,-1,-1,-1,-1,-1,-1,-1,-1,-1,-1,-1,-1,-1,-1,-1,-1,-1,-1,-1,-1,-1,-1,-1,-1,-1,-1,-1,-1,-1,-1],"loss_changes":[4.1375E1,9.103516E0,7.6552734E0,1.35036545E1,1.8275146E0,2.1740723E0,7.6585693E0,5.3511353E0,6.9942207E0,1.6387329E0,2.2428286E0,2.41156E0,8.9416504E-1,4.960144E0,5.1660156E-1,3.9681702E0,1.9123296E0,3.9395504E0,6.8191605E0,3.6435852E0,3.453476E0,0E0,3.798186E0,1.7012599E0,3.2330322E-1,8.970947E-1,0E0,2.6077173E0,4.1889343E0,3.5406399E0,8.642578E-2,0E0,1.9111176E0,0E0,0E0,5.7861304E0,2.2926831E0,9.382526E0,3.1910172E0,1.625946E0,0E0,3.658062E0,1.4523697E0,0E0,5.171877E-1,0E0,0E0,0E0,6.189835E-1,6.8603516E-1,4.2011147E0,0E0,0E0,2.932473E0,2.0122375E0,0E0,0E0,0E0,0E0,0E0,0E0,0E0,0E0,0E0,0E0,0E0,0E0,0E0,0E0,0E0,0E0,0E0,0E0,0E0,0E0,0E0,0E0,0E0,0E0,0E0,0E0,0E0,0E0,0E0,0E0,0E0,0E0],"parents":[2147483647,0,0,1,1,2,2,3,3,4,4,5,5,6,6,7,7,8,8,9,9,10,10,11,11,12,12,13,13,14,14,15,15,16,16,17,17,18,18,19,19,20,20,22,22,23,23,24,24,25,25,27,27,28,28,29,29,30,30,32,32,35,35,36,36,37,37,38,38,39,39,41,41,42,42,44,44,48,48,49,49,50,50,53,53,54,54],"right_children":[2,4,6,8,10,12,14,16,18,20,22,24,26,28,30,32,34,36,38,40,42,-1,44,46,48,50,-1,52,54,56,58,-1,60,-1,-1,62,64,66,68,70,-1,72,74,-1,76,-1,-1,-1,78,80,82,-1,-1,84,86,-1,-1,-1,-1,-1,-1,-1,-1,-1,-1,-1,-1,-1,-1,-1,-1,-1,-1,-1,-1,-1,-1,-1,-1,-1,-1,-1,-1,-1,-1,-1,-1],"split_conditions":[-7.5222546E-1,-1.5043262E0,9.504054E-1,-5.3803083E-2,4.1337333E0,-1.322943E-1,6.848657E-1,1.5437336E0,2.005544E-1,-5.950135E-2,-3.554828E-1,-1.2788388E0,7.0291133E0,9.671938E-1,-1.0020911E-1,-1.5664507E0,1E0,-1.1283389E0,5.1861748E-2,2.1474235E0,6.095324E-1,-6.088354E-2,-1.0347397E0,-1.4814714E0,3.1203327E0,1.6759648E0,-2.6361898E-2,2.0253219E-2,-1.7794015E0,-6.901911E-1,-1.0209534E0,1.231577E-2,-1.05801E0,-2.8324965E-2,3.7183587E-2,-1.7794015E0,-2.0933698E-1,-1.5175578E-1,2.686043E0,1.6999428E0,6.181603E-3,-1.2508295E0,1.3504028E-1,4.4861067E-2,5.09886E0,-4.3306712E-2,1.6911872E-2,-7.4261494E-2,3.617374E-1,1.2612869E0,1.3162228E0,3.9581675E-2,-3.0740103E-2,1.5022008E0,1.962198E0,1.7368158E-2,-6.483372E-2,-2.6380926E-2,-8.27489E-2,-3.5979E-2,-7.332959E-2,-2.2252362E-2,3.0417386E-2,1.41113745E-2,-5.068573E-2,-5.9061743E-2,6.3119374E-2,-5.1793654E-2,1.1579995E-2,-6.9077134E-2,-6.148627E-3,-1.371174E-2,-5.2016437E-2,-3.0070085E-2,-6.954749E-2,-5.3087543E-3,-5.0681364E-2,-5.3920507E-2,-9.776882E-3,-8.1199974E-2,-5.2815404E-2,-6.53167E-2,1.8317832E-2,-3.5731852E-2,3.792302E-2,-6.535449E-2,-3.3497296E-2],"split_indices":[20,20,12,12,6,10,20,14,17,2,5,3,6,12,11,18,43,10,12,15,1,0,20,12,3,14,0,20,10,15,3,0,3,0,0,10,6,1,6,5,0,5,3,0,6,0,0,0,17,17,5,0,0,12,6,0,0,0,0,0,0,0,0,0,0,0,0,0,0,0,0,0,0,0,0,0,0,0,0,0,0,0,0,0,0,0,0],"split_type":[0,0,0,0,0,0,0,0,0,0,0,0,0,0,0,0,0,0,0,0,0,0,0,0,0,0,0,0,0,0,0,0,0,0,0,0,0,0,0,0,0,0,0,0,0,0,0,0,0,0,0,0,0,0,0,0,0,0,0,0,0,0,0,0,0,0,0,0,0,0,0,0,0,0,0,0,0,0,0,0,0,0,0,0,0,0,0],"sum_hessian":[1.8921978E3,4.235338E2,1.468664E3,1.2709663E2,2.9643716E2,1.1374291E3,3.3123483E2,5.6941708E1,7.0154915E1,2.9048938E2,5.9478054E0,3.742679E2,7.631612E2,2.2887051E2,1.0236433E2,5.4461697E1,2.4800098E0,2.5888765E1,4.426615E1,1.6404091E2,1.2644846E2,1.9823716E0,3.9654338E0,3.2134314E0,3.7105447E2,7.611845E2,1.9767022E0,3.4543662E0,2.2541615E2,5.915797E0,9.644853E1,1.2484726E0,5.3213223E1,1.2384334E0,1.2415764E0,1.8916792E1,6.971973E0,4.4820423E0,3.978411E1,1.6255727E2,1.4836421E0,6.660974E1,5.9838722E1,1.4901124E0,2.4753213E0,1.9769908E0,1.2364404E0,3.675947E2,3.4597867E0,7.444533E2,1.6731205E1,1.2353042E0,2.219062E0,3.712686E0,2.2170346E2,1.2341218E0,4.6816754E0,1.2290137E0,9.521951E1,6.9376335E0,4.627559E1,9.953896E0,8.962897E0,1.2456372E0,5.726336E0,1.7395431E0,2.742499E0,3.803868E1,1.745428E0,1.6131786E2,1.2394063E0,7.9235196E0,5.8686222E1,4.686618E0,5.5152103E1,1.236154E0,1.2391675E0,1.48205E0,1.9777367E0,7.3506476E2,9.388569E0,1.5501361E1,1.229844E0,2.472005E0,1.240681E0,2.1329507E2,8.408395E0],"tree_param":{"num_deleted":"0","num_feature":"53","num_nodes":"87","size_leaf_vector":"0"}},{"base_weights":[-1.3934636E0,-1.0853095E0,-1.4668987E0,-1.2663428E0,-9.556087E-1,-1.3475977E0,-1.5206871E0,-2.3029701E-1,-1.2876338E0,-7.090549E-1,-1.1037568E0,-1.3527712E0,1.81275E-2,-1.5661916E0,-1.4268447E0,-4.3677434E-2,3.635244E-2,-5.256556E-1,-1.3118665E0,-4.5916006E-1,-1.1230545E0,-6.058958E-1,-1.1699188E0,-1.482408E0,-1.2433144E0,-2.0553502E-3,-1.5699819E0,-1.4424876E0,-7.201657E-1,4.389765E-2,-5.8081657E-2,-1.3409141E0,-7.3129535E-1,-5.2457464E-1,4.7783308E-2,-1.1922175E0,1.4623306E-2,-8.833274E-1,1.8288942E-1,-1.2897667E0,-9.1316414E-1,-2.5078729E-2,-1.4891603E0,3.6866203E-1,-1.2612182E0,-1.5745635E0,-9.0942806E-1,-8.262964E-1,-1.4577813E0,-3.5000946E-2,-6.827714E-2,-2.4757162E-2,-6.773581E-2,3.3035666E-2,-5.223864E-2,-3.3891298E-2,8.814317E-3,-6.261843E-2,-1.1638951E-2,-6.3113123E-3,-6.56795E-2,3.768875E-2,-4.8869234E-2,-7.1811214E-2,-5.059138E-2,-4.8880737E-2,1.7056791E-2,-7.480454E-2,-3.1682387E-2,4.999098E-2,-2.4916662E-2,-6.400967E-2,-3.742987E-2,-7.8890644E-2,-4.3969676E-2,3.7096925E-3,-6.825052E-2,-5.4714687E-2,1.738716E-2,-6.981458E-2,-7.933452E-2,2.2921847E-2,-4.982005E-2],"categories":[],"categories_nodes":[],"categories_segments":[],"categories_sizes":[],"default_left":[0,0,0,0,0,0,0,0,0,0,0,0,0,0,0,0,0,0,0,0,0,0,0,0,0,0,0,0,0,0,0,0,0,0,0,0,0,0,0,0,0,0,0,0,0,0,0,0,0,0,0,0,0,0,0,0,0,0,0,0,0,0,0,0,0,0,0,0,0,0,0,0,0,0,0,0,0,0,0,0,0,0,0],"id":4,"left_children":[1,3,5,7,9,11,13,15,17,19,21,23,-1,25,27,-1,-1,29,31,33,35,37,39,41,43,-1,45,47,49,-1,-1,51,53,55,-1,57,-1,59,61,63,65,-1,67,69,71,73,75,77,79,81,-1,-1,-1,-1,-1,-1,-1,-1,-1,-1,-1,-1,-1,-1,-1,-1,-1,-1,-1,-1,-1,-1,-1,-1,-1,-1,-1,-1,-1,-1,-1,-1,-1],"loss_changes":[4.0816406E1,7.348297E0,7.644043E0,2.9916077E0,7.1228027E0,4.7211914E0,2.1779785E0,3.2335236E0,2.0034332E0,8.177967E0,3.6852264E0,4.9248657E0,0E0,3.8989258E0,2.8157349E0,0E0,0E0,6.5221415E0,1.391922E0,5.507659E0,3.377613E0,4.039809E0,2.4125214E0,6.647644E-1,8.107544E0,0E0,6.3793945E-1,2.0008545E0,4.1743865E0,0E0,0E0,8.791809E-1,4.575209E0,5.742115E0,0E0,1.4221687E0,0E0,4.161001E0,4.340007E0,1.6861267E0,3.6119957E0,0E0,3.0413818E-1,2.5134525E0,1.5914001E0,1.4379883E-1,3.2732706E0,3.6987853E0,4.0496826E-1,3.1407585E0,0E0,0E0,0E0,0E0,0E0,0E0,0E0,0E0,0E0,0E0,0E0,0E0,0E0,0E0,0E0,0E0,0E0,0E0,0E0,0E0,0E0,0E0,0E0,0E0,0E0,0E0,0E0,0E0,0E0,0E0,0E0,0E0,0E0],"parents":[2147483647,0,0,1,1,2,2,3,3,4,4,5,5,6,6,7,7,8,8,9,9,10,10,11,11,13,13,14,14,17,17,18,18,19,19,20,20,21,21,22,22,23,23,24,24,26,26,27,27,28,28,31,31,32,32,33,33,35,35,37,37,38,38,39,39,40,40,42,42,43,43,44,44,45,45,46,46,47,47,48,48,49,49],"right_children":[2,4,6,8,10,12,14,16,18,20,22,24,-1,26,28,-1,-1,30,32,34,36,38,40,42,44,-1,46,48,50,-1,-1,52,54,56,-1,58,-1,60,62,64,66,-1,68,70,72,74,76,78,80,82,-1,-1,-1,-1,-1,-1,-1,-1,-1,-1,-1,-1,-1,-1,-1,-1,-1,-1,-1,-1,-1,-1,-1,-1,-1,-1,-1,-1,-1,-1,-1,-1,-1],"split_conditions":[-8.63269E-1,-2.4866737E-1,-1.4885484E-1,-2.4648614E0,-1.4106454E0,1E0,5.619465E-1,-2.2282293E0,-9.33182E-1,-6.0667735E-1,-1.3700875E0,-2.4035661E-1,1.81275E-2,-1.6325686E0,1E0,-4.3677434E-2,3.635244E-2,-1.6861433E0,1.1607877E0,3.6511698E0,1.5959553E0,7.788765E-1,6.355014E-1,-1.40026E0,-8.704967E-1,-2.0553502E-3,1.7151456E0,-1.1495744E0,5.523736E-1,4.389765E-2,-5.8081657E-2,-3.0790558E0,-1.9589906E0,1.5808032E0,4.7783308E-2,1E0,1.4623306E-2,1.6686267E0,1E0,4.3348914E-1,2.4447615E0,-2.5078729E-2,-1.5682521E-1,-2.1082702E-1,-4.4457376E-2,1.2612869E0,2.3646109E-1,1.3209928E0,9.826426E-1,1.6017965E0,-6.827714E-2,-2.4757162E-2,-6.773581E-2,3.3035666E-2,-5.223864E-2,-3.3891298E-2,8.814317E-3,-6.261843E-2,-1.1638951E-2,-6.3113123E-3,-6.56795E-2,3.768875E-2,-4.8869234E-2,-7.1811214E-2,-5.059138E-2,-4.8880737E-2,1.7056791E-2,-7.480454E-2,-3.1682387E-2,4.999098E-2,-2.4916662E-2,-6.400967E-2,-3.742987E-2,-7.8890644E-2,-4.3969676E-2,3.7096925E-3,-6.825052E-2,-5.4714687E-2,1.738716E-2,-6.981458E-2,-7.933452E-2,2.2921847E-2,-4.982005E-2],"split_indices":[22,12,20,22,20,35,12,11,6,11,17,13,0,18,49,0,0,20,17,6,5,3,17,1,12,0,5,10,20,0,0,9,10,13,0,44,0,18,30,3,6,0,20,1,22,17,22,4,20,13,0,0,0,0,0,0,0,0,0,0,0,0,0,0,0,0,0,0,0,0,0,0,0,0,0,0,0,0,0,0,0,0,0],"split_type":[0,0,0,0,0,0,0,0,0,0,0,0,0,0,0,0,0,0,0,0,0,0,0,0,0,0,0,0,0,0,0,0,0,0,0,0,0,0,0,0,0,0,0,0,0,0,0,0,0,0,0,0,0,0,0,0,0,0,0,0,0,0,0,0,0,0,0,0,0,0,0,0,0,0,0,0,0,0,0,0,0,0,0],"sum_hessian":[1.8730502E3,3.6349628E2,1.5095538E3,1.4806581E2,2.1543047E2,4.7719775E2,1.0323561E3,3.2194726E0,1.4484634E2,8.30318E1,1.3239867E2,4.759669E2,1.2308879E0,6.846681E2,3.47688E2,1.9779775E0,1.2414951E0,5.1638923E0,1.3968245E2,5.309322E1,2.993858E1,1.6722383E1,1.15676285E2,2.1215462E2,2.6381226E2,1.7267706E0,6.8294135E2,3.3913965E2,8.548351E0,1.4915496E0,3.6723425E0,1.3177951E2,7.9029355E0,5.1348354E1,1.7448643E0,2.8694319E1,1.2442621E0,1.2282518E1,4.439866E0,7.6121124E1,3.955516E1,1.9652444E0,2.1018938E2,2.6826937E0,2.6112958E2,6.7686285E2,6.078438E0,9.546203E0,3.2959344E2,4.657717E0,3.8906343E0,2.708064E0,1.2907146E2,1.2490023E0,6.653933E0,4.2162014E1,9.186342E0,2.6714188E1,1.9801314E0,4.9194665E0,7.3630514E0,3.210542E0,1.2293242E0,4.7122772E1,2.8998348E1,3.783181E1,1.7233511E0,2.0775761E2,2.4317636E0,1.4638416E0,1.2188522E0,2.5036473E2,1.076483E1,6.7245E2,4.4128604E0,2.1891387E0,3.8892992E0,7.8273764E0,1.7188265E0,2.31161E2,9.843245E1,3.4236753E0,1.2340419E0],"tree_param":{"num_deleted":"0","num_feature":"53","num_nodes":"83","size_leaf_vector":"0"}},{"base_weights":[-1.3352304E0,-9.043452E-1,-1.3885936E0,-1.155584E0,-6.616929E-1,-1.2963097E0,-1.4783143E0,-1.2041159E0,-3.5496354E-1,-8.92612E-1,-1.9933982E-1,-1.4067824E0,-1.1921694E0,-1.4924079E0,-1.2314475E0,-1.2530509E0,-6.9125044E-1,2.6098121E-2,-7.335019E-1,4.7132593E-2,-9.77694E-1,6.028572E-1,-5.14214E-1,-1.4132707E0,1.834387E-2,5.1972604E-1,-1.2031244E0,-1.2962233E0,-1.5104622E0,1.5614069E-1,-1.3112506E0,-7.697879E-1,-1.3248571E0,3.694441E-1,-1.1032827E0,1.4917488E-2,-6.480872E-2,1.0578787E0,-8.6416084E-1,-1.0076754E0,1.6259635E-2,1.1164685E0,7.453723E-2,-1.5328008E-1,-1.0102485E0,-8.042286E-1,-1.4230705E0,4.263766E-2,-2.4014865E-3,1.297975E-1,-1.2117771E0,-1.3759127E0,-4.5154667E-1,-1.5219E0,-1.2505282E0,-4.5653995E-2,5.2791018E-2,-1.341568E0,-1.4918767E-2,-5.303135E-2,-8.999169E-3,-4.3770216E-2,-7.1473815E-2,4.259227E-2,-1.0798837E-2,-7.074836E-2,-5.4085106E-3,6.5744705E-2,1.5004675E-2,-5.815018E-2,-3.9607454E-3,-3.970325E-2,-6.598746E-2,7.574908E-2,1.5389657E-3,-3.538628E-2,2.2506643E-2,-3.4128208E-2,1.4848511E-2,-7.053802E-2,-3.0337824E-2,-5.8337744E-2,2.0525346E-2,-7.133796E-2,-2.3018789E-2,-2.95212E-2,4.3385237E-2,-6.0848113E-2,8.617106E-3,-7.06807E-2,-3.8993065E-3,-5.197039E-2,3.6340356E-2,-4.8248332E-2,-7.631351E-2,-6.578626E-2,-3.6543538E-3,-6.9986366E-2,-3.334077E-2],"categories":[],"categories_nodes":[],"categories_segments":[],"categories_sizes":[],"default_left":[0,0,0,0,0,0,0,0,0,0,0,0,0,0,0,0,0,0,0,0,0,0,0,0,0,0,0,0,0,0,0,0,0,0,0,0,0,0,0,0,0,0,0,0,0,0,0,0,0,0,0,0,0,0,0,0,0,0,0,0,0,0,0,0,0,0,0,0,0,0,0,0,0,0,0,0,0,0,0,0,0,0,0,0,0,0,0,0,0,0,0,0,0,0,0,0,0,0,0],"id":5,"left_children":[1,3,5,7,9,11,13,15,17,19,21,23,25,27,29,31,33,-1,35,37,39,41,43,45,-1,47,49,51,53,55,57,59,61,63,65,-1,-1,67,69,71,-1,73,75,77,79,81,83,-1,-1,85,87,89,91,93,95,-1,-1,97,-1,-1,-1,-1,-1,-1,-1,-1,-1,-1,-1,-1,-1,-1,-1,-1,-1,-1,-1,-1,-1,-1,-1,-1,-1,-1,-1,-1,-1,-1,-1,-1,-1,-1,-1,-1,-1,-1,-1,-1,-1],"loss_changes":[4.1509277E1,1.1905075E1,1.1770752E1,3.4878998E0,1.1359032E1,7.791382E0,1.0535889E0,1.507721E0,2.7653053E0,5.7851295E0,9.726651E0,5.050598E0,8.693298E0,8.099365E-1,5.8080215E0,1.9338989E0,4.9831824E0,0E0,3.53869E0,7.281731E0,2.900547E0,2.8931453E0,4.734892E0,1.1985474E0,0E0,6.90225E-1,5.0908813E0,4.2860107E0,2.0629883E-1,4.4708757E0,1.0723419E0,2.1074104E0,2.168068E0,1.2227421E0,2.2634792E0,0E0,0E0,3.313465E-1,8.897567E-1,3.2602386E0,0E0,2.328776E0,2.2220345E0,4.250989E0,9.7402096E-1,4.229339E0,7.105713E-1,0E0,0E0,2.4586296E0,3.2606812E0,3.1257706E0,6.140243E0,1.7028809E-1,2.6301231E0,0E0,0E0,8.826523E-1,0E0,0E0,0E0,0E0,0E0,0E0,0E0,0E0,0E0,0E0,0E0,0E0,0E0,0E0,0E0,0E0,0E0,0E0,0E0,0E0,0E0,0E0,0E0,0E0,0E0,0E0,0E0,0E0,0E0,0E0,0E0,0E0,0E0,0E0,0E0,0E0,0E0,0E0,0E0,0E0,0E0],"parents":[2147483647,0,0,1,1,2,2,3,3,4,4,5,5,6,6,7,7,8,8,9,9,10,10,11,11,12,12,13,13,14,14,15,15,16,16,18,18,19,19,20,20,21,21,22,22,23,23,25,25,26,26,27,27,28,28,29,29,30,30,31,31,32,32,33,33,34,34,37,37,38,38,39,39,41,41,42,42,43,43,44,44,45,45,46,46,49,49,50,50,51,51,52,52,53,53,54,54,57,57],"right_children":[2,4,6,8,10,12,14,16,18,20,22,24,26,28,30,32,34,-1,36,38,40,42,44,46,-1,48,50,52,54,56,58,60,62,64,66,-1,-1,68,70,72,-1,74,76,78,80,82,84,-1,-1,86,88,90,92,94,96,-1,-1,98,-1,-1,-1,-1,-1,-1,-1,-1,-1,-1,-1,-1,-1,-1,-1,-1,-1,-1,-1,-1,-1,-1,-1,-1,-1,-1,-1,-1,-1,-1,-1,-1,-1,-1,-1,-1,-1,-1,-1,-1,-1],"split_conditions":[-1.2278048E0,-5.3803083E-2,1.2681548E-1,1.1942874E0,5.2412623E-1,-1.6791788E-1,1.5142608E0,-2.908505E-1,-1.9589906E0,-5.52058E-1,-1.8826344E0,1E0,-8.704967E-1,-1.337807E0,-1.4979268E0,-1.0595987E0,-7.3589224E-1,2.6098121E-2,-6.190443E-1,-1.5846174E0,3.1686065E0,5.0267583E-1,6.618522E-1,-1.9589906E0,1.834387E-2,-4.5024782E-1,-1.5493971E-1,2.1921933E0,1E0,6.372152E-2,2.5137775E0,3.4862658E-1,-1.3556617E0,8.0692106E-1,1.312914E-1,1.4917488E-2,-6.480872E-2,-8.742695E-2,4.58403E-1,-5.9105915E-1,1.6259635E-2,3.194469E-2,4.6248463E-1,1E0,-2.3713689E-1,-2.0001078E0,3.90715E0,4.263766E-2,-2.4014865E-3,-2.687474E-1,2.5699568E0,1.6380748E0,-1.45996E0,-1.6999428E0,1.2996888E0,-4.5653995E-2,5.2791018E-2,2.1921933E0,-1.4918767E-2,-5.303135E-2,-8.999169E-3,-4.3770216E-2,-7.1473815E-2,4.259227E-2,-1.0798837E-2,-7.074836E-2,-5.4085106E-3,6.5744705E-2,1.5004675E-2,-5.815018E-2,-3.9607454E-3,-3.970325E-2,-6.598746E-2,7.574908E-2,1.5389657E-3,-3.538628E-2,2.2506643E-2,-3.4128208E-2,1.4848511E-2,-7.053802E-2,-3.0337824E-2,-5.8337744E-2,2.0525346E-2,-7.133796E-2,-2.3018789E-2,-2.95212E-2,4.3385237E-2,-6.0848113E-2,8.617106E-3,-7.06807E-2,-3.8993065E-3,-5.197039E-2,3.6340356E-2,-4.8248332E-2,-7.631351E-2,-6.578626E-2,-3.6543538E-3,-6.9986366E-2,-3.334077E-2],"split_indices":[20,12,20,17,4,13,12,10,10,13,20,35,12,18,14,19,15,0,15,20,6,13,15,10,0,11,13,0,52,13,11,14,12,0,19,0,0,19,21,11,0,6,14,36,9,10,4,0,0,9,9,14,18,19,12,0,0,0,0,0,0,0,0,0,0,0,0,0,0,0,0,0,0,0,0,0,0,0,0,0,0,0,0,0,0,0,0,0,0,0,0,0,0,0,0,0,0,0,0],"split_type":[0,0,0,0,0,0,0,0,0,0,0,0,0,0,0,0,0,0,0,0,0,0,0,0,0,0,0,0,0,0,0,0,0,0,0,0,0,0,0,0,0,0,0,0,0,0,0,0,0,0,0,0,0,0,0,0,0,0,0,0,0,0,0,0,0,0,0,0,0,0,0,0,0,0,0,0,0,0,0,0,0,0,0,0,0,0,0,0,0,0,0,0,0,0,0,0,0,0,0],"sum_hessian":[1.8588921E3,2.068241E2,1.652068E3,9.976575E1,1.0705835E2,8.2201666E2,8.300514E2,9.358863E1,6.1771164E0,7.077812E1,3.6280228E1,3.9281134E2,4.292053E2,7.8045E2,4.960142E1,8.411916E1,9.469472E0,1.7482388E0,4.4288774E0,5.913092E0,6.486503E1,9.968678E0,2.6311548E1,3.9158206E2,1.2292966E0,2.4338584E0,4.2677142E2,7.190408E1,7.085459E2,2.6455169E0,4.6955906E1,1.2398218E1,7.172094E1,2.6782398E0,6.7912316E0,1.7286224E0,2.700255E0,2.7272992E0,3.1857932E0,6.362744E1,1.2375857E0,4.490222E0,5.4784565E0,1.5987464E1,1.0324084E1,7.516361E0,3.840657E2,1.2176514E0,1.216207E0,2.6622288E0,4.241092E2,6.513055E1,6.7735386E0,6.7403143E2,3.4514484E1,1.2020506E0,1.4434663E0,4.5276176E1,1.6797272E0,7.768981E0,4.629237E0,1.5311023E1,5.640992E1,1.2188108E0,1.4594291E0,4.8501678E0,1.9410641E0,1.4875809E0,1.2397182E0,1.9585161E0,1.2272769E0,3.9876778E1,2.3750666E1,2.9953423E0,1.49488E0,1.4902982E0,3.9881582E0,7.11159E0,8.8758745E0,3.9283621E0,6.3957224E0,5.819181E0,1.69718E0,3.8211954E2,1.9461683E0,1.4484051E0,1.2138237E0,4.2264667E2,1.4625299E0,6.320546E1,1.9250839E0,4.5977254E0,2.175813E0,6.974692E0,6.670567E2,3.259235E1,1.922136E0,4.069418E1,4.5819993E0],"tree_param":{"num_deleted":"0","num_feature":"53","num_nodes":"99","size_leaf_vector":"0"}},{"base_weights":[-1.2881356E0,-1.0324638E0,-1.3635049E0,-6.08341E-1,-1.0889689E0,-1.4248245E0,-1.2429042E0,-7.973727E-1,2.636791E-1,-1.3336319E0,-1.0252548E0,-6.955405E-1,-1.4287963E0,-1.1107188E0,-1.3349807E0,-9.9980915E-1,-4.6970468E-2,6.332666E-2,-3.4939528E-1,-1.5801175E-2,-1.3533174E0,-7.345062E-1,-1.0843422E0,-1.0186683E0,2.3646696E-2,-1.4304237E0,-2.1512851E-2,-1.4345809E0,-1.0591726E0,-1.0701108E0,-1.3657855E0,-1.0826256E0,3.1779885E-2,-8.463866E-1,4.0198034E-1,-5.450886E-2,3.8513136E-1,-1.2289455E0,-7.9154216E-2,-7.8365916E-1,3.6812972E-2,-1.0923319E0,1.9577607E-3,-6.417452E-2,-3.1051898E-4,-1.357138E0,-1.4637147E0,-1.5019603E0,-2.0252017E-2,-1.0831759E0,-4.7868124E-1,-1.183456E0,2.8816366E-1,-1.3804334E0,-8.6084414E-1,9.90878E-3,-5.8577962E-2,-4.8259194E-3,-5.7497162E-2,4.272833E-2,-2.6226148E-2,4.4659372E-2,-1.6549643E-2,-6.455713E-2,-2.623812E-2,-4.5363065E-2,-7.8779645E-3,-5.5677462E-2,-3.1217713E-2,-3.239433E-2,-6.864662E-2,-6.1690193E-2,-7.401405E-2,-2.2488121E-2,-7.6933905E-2,-2.8779262E-3,-5.4719247E-2,-3.7155297E-2,2.0417646E-2,-6.157577E-2,8.534509E-4,6.587108E-2,-4.430282E-2,-7.063567E-2,-5.751424E-2,-5.649652E-2,-5.3986832E-3],"categories":[],"categories_nodes":[],"categories_segments":[],"categories_sizes":[],"default_left":[0,0,0,0,0,0,0,0,0,0,0,0,0,0,0,0,0,0,0,0,0,0,0,0,0,0,0,0,0,0,0,0,0,0,0,0,0,0,0,0,0,0,0,0,0,0,0,0,0,0,0,0,0,0,0,0,0,0,0,0,0,0,0,0,0,0,0,0,0,0,0,0,0,0,0,0,0,0,0,0,0,0,0,0,0,0,0],"id":6,"left_children":[1,3,5,7,9,11,13,15,17,19,21,23,25,27,29,31,33,-1,35,-1,37,39,41,43,-1,45,-1,47,49,51,53,55,-1,57,59,-1,61,63,-1,65,-1,67,-1,-1,-1,69,71,73,-1,75,77,79,81,83,85,-1,-1,-1,-1,-1,-1,-1,-1,-1,-1,-1,-1,-1,-1,-1,-1,-1,-1,-1,-1,-1,-1,-1,-1,-1,-1,-1,-1,-1,-1,-1,-1],"loss_changes":[3.3785156E1,9.4010315E0,8.636963E0,8.721579E0,4.3894043E0,1.6889648E0,4.3863525E0,6.4370728E0,6.5602417E0,1.0341339E0,4.3112183E0,3.1116312E0,8.800049E-1,1.8851013E0,8.171997E-1,5.2342415E0,3.9714634E0,0E0,4.2064366E0,0E0,9.1552734E-2,4.431326E0,2.2419739E0,1.5400186E0,0E0,2.5402832E-1,0E0,1.1384583E0,1.9862213E0,5.531719E0,6.3534546E-1,3.9134026E0,0E0,7.905605E-1,3.4493618E0,0E0,1.8358151E0,1.5439072E0,0E0,3.8870964E0,0E0,1.720581E0,0E0,0E0,0E0,2.477539E0,5.3015137E-1,2.0679474E-1,0E0,1.9123993E0,2.3979642E0,1.8277855E0,5.2776847E0,1.4279175E-1,1.8244014E0,0E0,0E0,0E0,0E0,0E0,0E0,0E0,0E0,0E0,0E0,0E0,0E0,0E0,0E0,0E0,0E0,0E0,0E0,0E0,0E0,0E0,0E0,0E0,0E0,0E0,0E0,0E0,0E0,0E0,0E0,0E0,0E0],"parents":[2147483647,0,0,1,1,2,2,3,3,4,4,5,5,6,6,7,7,8,8,9,9,10,10,11,11,12,12,13,13,14,14,15,15,16,16,18,18,20,20,21,21,22,22,23,23,25,25,27,27,28,28,29,29,30,30,31,31,33,33,34,34,36,36,37,37,39,39,41,41,45,45,46,46,47,47,49,49,50,50,51,51,52,52,53,53,54,54],"right_children":[2,4,6,8,10,12,14,16,18,20,22,24,26,28,30,32,34,-1,36,-1,38,40,42,44,-1,46,-1,48,50,52,54,56,-1,58,60,-1,62,64,-1,66,-1,68,-1,-1,-1,70,72,74,-1,76,78,80,82,84,86,-1,-1,-1,-1,-1,-1,-1,-1,-1,-1,-1,-1,-1,-1,-1,-1,-1,-1,-1,-1,-1,-1,-1,-1,-1,-1,-1,-1,-1,-1,-1,-1],"split_conditions":[-7.5222546E-1,-1.8826344E0,5.5196357E-1,6.925212E-1,-9.104848E-1,-2.01215E0,6.704701E-2,5.80332E-1,4.6226388E-1,-1.7898941E0,-1.5430627E0,3.194469E-2,7.270395E0,-1.314276E0,-3.5380432E-1,1.2088406E0,-1.937536E-1,6.332666E-2,9.884572E-1,-1.5801175E-2,-9.489922E-1,1.2525E0,1E0,-1.4601691E-1,2.3646696E-2,-1.322943E-1,-2.1512851E-2,5.4571116E-1,1.962198E0,2.1509147E0,2.360889E0,-1.0251291E0,3.1779885E-2,-9.3805605E-1,1.1130248E0,-5.450886E-2,-1.2155724E0,-1.0534711E0,-7.9154216E-2,-6.171925E-1,3.6812972E-2,-7.744553E-1,1.9577607E-3,-6.417452E-2,-3.1051898E-4,-1.2737969E0,-1.4660215E0,-6.5977854E-1,-2.0252017E-2,-1.2759649E0,1.1875849E0,-3.7435415E-1,4.5161727E-1,1E0,9.718275E-1,9.90878E-3,-5.8577962E-2,-4.8259194E-3,-5.7497162E-2,4.272833E-2,-2.6226148E-2,4.4659372E-2,-1.6549643E-2,-6.455713E-2,-2.623812E-2,-4.5363065E-2,-7.8779645E-3,-5.5677462E-2,-3.1217713E-2,-3.239433E-2,-6.864662E-2,-6.1690193E-2,-7.401405E-2,-2.2488121E-2,-7.6933905E-2,-2.8779262E-3,-5.4719247E-2,-3.7155297E-2,2.0417646E-2,-6.157577E-2,8.534509E-4,6.587108E-2,-4.430282E-2,-7.063567E-2,-5.751424E-2,-5.649652E-2,-5.3986832E-3],"split_indices":[20,20,12,4,13,11,20,13,1,13,20,6,6,5,10,17,17,0,15,0,12,17,40,13,0,10,0,17,6,4,13,15,0,5,12,0,11,12,0,10,0,20,0,0,0,1,19,20,0,5,3,10,20,45,5,0,0,0,0,0,0,0,0,0,0,0,0,0,0,0,0,0,0,0,0,0,0,0,0,0,0,0,0,0,0,0,0],"split_type":[0,0,0,0,0,0,0,0,0,0,0,0,0,0,0,0,0,0,0,0,0,0,0,0,0,0,0,0,0,0,0,0,0,0,0,0,0,0,0,0,0,0,0,0,0,0,0,0,0,0,0,0,0,0,0,0,0,0,0,0,0,0,0,0,0,0,0,0,0,0,0,0,0,0,0,0,0,0,0,0,0,0,0,0,0,0,0],"sum_hessian":[1.8253197E3,4.189233E2,1.4063964E3,5.0634068E1,3.6828925E2,9.251753E2,4.8122107E2,4.168371E1,8.95036E0,7.1974434E1,2.963148E2,5.965311E0,9.1921E2,2.0294121E2,2.7827988E2,3.2565994E1,9.117714E0,2.9913316E0,5.9590282E0,1.689547E0,7.028489E1,5.231608E1,2.4399872E2,4.7734704E0,1.1918403E0,9.172825E2,1.927564E0,2.4181198E1,1.7876001E2,3.27159E1,2.4556398E2,3.1318066E1,1.2479272E0,2.9606433E0,6.1570706E0,2.7258124E0,3.2332158E0,4.972021E1,2.0564676E1,5.1076286E1,1.2397925E0,2.4230333E2,1.6953896E0,3.5715783E0,1.2018923E0,2.9957437E2,6.1770807E2,2.2265167E1,1.9160302E0,1.7083022E2,7.9297876E0,3.0314892E1,2.401008E0,2.3695624E2,8.607741E0,1.9536526E0,2.9364414E1,1.2329289E0,1.7277144E0,4.1886206E0,1.9684501E0,1.746737E0,1.4864788E0,4.4919186E1,4.8010254E0,4.2280388E1,8.7958975E0,2.304745E2,1.1828827E1,7.4412217E0,2.9213315E2,4.6590534E1,5.7111755E2,1.1975291E0,2.1067638E1,1.9131416E0,1.6891707E2,6.2337623E0,1.6960251E0,2.9123215E1,1.1916758E0,1.2144936E0,1.1865144E0,2.0330334E2,3.3652893E1,5.9723215E0,2.6354196E0],"tree_param":{"num_deleted":"0","num_feature":"53","num_nodes":"87","size_leaf_vector":"0"}},{"base_weights":[-1.2421544E0,-9.341417E-1,-1.2957859E0,-9.7116256E-1,-8.349167E-2,-1.3527559E0,-1.1849227E0,-1.1406753E0,-7.652824E-1,-5.315431E-2,3.62645E-1,-1.3551655E0,2.63754E-3,-1.1016338E0,-1.3882779E0,-1.1642656E0,-4.4961655E-1,-6.0869414E-1,-1.1280996E0,1.0473547E0,-1.6497184E-1,-1.3040156E0,-1.4476895E0,-9.93574E-2,-1.1120507E0,-1.207934E0,-7.3470116E-2,-7.523459E-1,-1.1986403E0,1.6699556E-1,-4.7091838E-2,-3.2389843E-1,-9.0196294E-1,-1.2289836E0,-1.3079193E-1,1.8088369E-2,6.045059E-2,3.510053E-2,-6.62941E-1,-5.804419E-3,-1.3076526E0,-1.4525809E0,-9.774097E-4,3.271636E-2,-3.8454797E-2,-5.331311E-1,-1.1280708E0,-5.32374E-1,-1.3556719E0,6.2997537E-3,-5.6419503E-2,-6.049609E-2,-1.7388224E-3,-2.255468E-2,3.279687E-2,-2.3712296E-2,3.3333678E-2,1.5702374E-4,-5.0393116E-2,-2.676556E-2,-6.807419E-2,-4.4440415E-2,2.1757545E-2,-5.6206178E-2,7.7499202E-3,-6.5542705E-2,-2.552256E-2,-7.326887E-2,-5.183651E-2,-5.7076987E-2,1.2934078E-2,-5.7050694E-2,-2.5669632E-2,-3.986284E-2,3.7765022E-2,-2.7836878E-2,-7.065925E-2],"categories":[],"categories_nodes":[],"categories_segments":[],"categories_sizes":[],"default_left":[0,0,0,0,0,0,0,0,0,0,0,0,0,0,0,0,0,0,0,0,0,0,0,0,0,0,0,0,0,0,0,0,0,0,0,0,0,0,0,0,0,0,0,0,0,0,0,0,0,0,0,0,0,0,0,0,0,0,0,0,0,0,0,0,0,0,0,0,0,0,0,0,0,0,0,0,0],"id":7,"left_children":[1,3,5,7,9,11,13,15,17,-1,19,21,-1,23,25,27,29,31,33,35,37,39,41,43,45,47,-1,49,51,53,-1,55,57,59,61,-1,-1,-1,63,-1,65,67,-1,-1,-1,69,71,73,75,-1,-1,-1,-1,-1,-1,-1,-1,-1,-1,-1,-1,-1,-1,-1,-1,-1,-1,-1,-1,-1,-1,-1,-1,-1,-1,-1,-1],"loss_changes":[2.8635742E1,8.469635E0,8.099609E0,8.204514E0,5.8126245E0,3.4840088E0,7.43927E0,1.7688446E0,6.158806E0,0E0,3.5245476E0,2.873291E0,0E0,3.8622131E0,4.1989136E-1,1.0146027E0,2.0605016E0,6.9189663E0,3.3761292E0,2.5212288E-2,3.1006606E0,2.690796E0,2.4100952E0,3.0332177E0,2.8903809E0,4.484665E0,0E0,4.4723907E0,1.5759735E0,1.3938229E0,0E0,7.0719543E0,4.026558E0,2.1944313E0,2.2522113E0,0E0,0E0,0E0,1.8307573E0,0E0,1.0047607E0,3.319702E-1,0E0,0E0,0E0,6.092684E0,2.3216858E0,4.356642E0,1.1503448E0,0E0,0E0,0E0,0E0,0E0,0E0,0E0,0E0,0E0,0E0,0E0,0E0,0E0,0E0,0E0,0E0,0E0,0E0,0E0,0E0,0E0,0E0,0E0,0E0,0E0,0E0,0E0,0E0],"parents":[2147483647,0,0,1,1,2,2,3,3,4,4,5,5,6,6,7,7,8,8,10,10,11,11,13,13,14,14,15,15,16,16,17,17,18,18,19,19,20,20,21,21,22,22,23,23,24,24,25,25,27,27,28,28,29,29,31,31,32,32,33,33,34,34,38,38,40,40,41,41,45,45,46,46,47,47,48,48],"right_children":[2,4,6,8,10,12,14,16,18,-1,20,22,-1,24,26,28,30,32,34,36,38,40,42,44,46,48,-1,50,52,54,-1,56,58,60,62,-1,-1,-1,64,-1,66,68,-1,-1,-1,70,72,74,76,-1,-1,-1,-1,-1,-1,-1,-1,-1,-1,-1,-1,-1,-1,-1,-1,-1,-1,-1,-1,-1,-1,-1,-1,-1,-1,-1,-1],"split_conditions":[-1.0520155E0,2.9273248E0,5.5196357E-1,-1.2240398E-1,-1.7955577E0,1E0,6.8256444E-1,1E0,-3.6366364E-1,-5.315431E-2,-2.0710295E-1,5.807504E-1,2.63754E-3,5.619465E-1,1E0,-1.4299595E0,-5.9496064E-2,-9.088814E-1,-1.1047087E0,-1.0084759E0,-7.3589224E-1,-2.3304E0,7.0291133E0,-4.2934948E-1,-9.748763E-1,-5.740328E-1,-7.3470116E-2,-1.1665365E0,1.6999428E0,-1.4337674E0,-4.7091838E-2,1.290682E0,-2.3601737E0,-1.0083946E0,5.414773E-1,1.8088369E-2,6.045059E-2,3.510053E-2,5.984477E-1,-5.804419E-3,3.0262928E0,1.6504554E0,-9.774097E-4,3.271636E-2,-3.8454797E-2,2.587124E-1,1E0,1.720947E0,6.555431E-1,6.2997537E-3,-5.6419503E-2,-6.049609E-2,-1.7388224E-3,-2.255468E-2,3.279687E-2,-2.3712296E-2,3.3333678E-2,1.5702374E-4,-5.0393116E-2,-2.676556E-2,-6.807419E-2,-4.4440415E-2,2.1757545E-2,-5.6206178E-2,7.7499202E-3,-6.5542705E-2,-2.552256E-2,-7.326887E-2,-5.183651E-2,-5.7076987E-2,1.2934078E-2,-5.7050694E-2,-2.5669632E-2,-3.986284E-2,3.7765022E-2,-2.7836878E-2,-7.065925E-2],"split_indices":[22,6,12,2,9,35,22,51,10,0,5,10,0,12,43,13,14,11,22,14,15,9,6,22,22,15,0,10,5,22,0,5,10,5,4,0,0,0,3,0,9,14,0,0,0,5,49,22,12,0,0,0,0,0,0,0,0,0,0,0,0,0,0,0,0,0,0,0,0,0,0,0,0,0,0,0,0],"split_type":[0,0,0,0,0,0,0,0,0,0,0,0,0,0,0,0,0,0,0,0,0,0,0,0,0,0,0,0,0,0,0,0,0,0,0,0,0,0,0,0,0,0,0,0,0,0,0,0,0,0,0,0,0,0,0,0,0,0,0,0,0,0,0,0,0,0,0,0,0,0,0,0,0,0,0,0,0],"sum_hessian":[1.8057491E3,2.7052234E2,1.5352268E3,2.5910428E2,1.1418058E1,1.00670276E3,5.2852405E2,1.3961275E2,1.1949154E2,3.1401885E0,8.277869E0,1.0050157E3,1.6870852E0,3.7950568E2,1.4901839E2,1.3434203E2,5.2707176E0,8.533814E1,3.4153397E1,3.1739016E0,5.1039677E0,6.5693726E2,3.480784E2,4.012123E0,3.7549356E2,5.116526E1,9.785313E1,1.2110159E1,1.22231865E2,2.6330204E0,2.637697E0,4.436215E1,4.0975994E1,3.0804976E1,3.3484197E0,1.2233872E0,1.9505144E0,1.7125711E0,3.3913965E0,2.1056318E0,6.5483167E2,3.4687326E2,1.2051625E0,1.8985816E0,2.1135416E0,1.1034129E1,3.644594E2,1.000751E1,4.1157753E1,3.8297677E0,8.280392E0,1.2101923E2,1.212631E0,1.1971138E0,1.4359068E0,3.896877E1,5.393379E0,4.393747E0,3.658225E1,5.748769E0,2.5056206E1,1.18746E0,2.1609597E0,1.9292706E0,1.4621259E0,6.515707E2,3.26094E0,3.3406967E2,1.2803581E1,5.989937E0,5.0441923E0,3.5610483E2,8.3545885E0,8.615999E0,1.3915105E0,3.4810777E0,3.7676674E1],"tree_param":{"num_deleted":"0","num_feature":"53","num_nodes":"77","size_leaf_vector":"0"}},{"base_weights":[-1.2007158E0,-1.0155987E0,-1.3039575E0,-6.4143866E-1,-1.0775098E0,-1.349152E0,-1.2120675E0,-9.472945E-1,-3.651668E-1,-1.2310822E0,-9.870932E-1,-2.609797E-1,-1.3522451E0,-1.1185758E0,-1.340751E0,-1.025286E0,1.6071083E-1,-4.6249485E-1,4.917753E-1,-1.0565099E0,-1.3177819E0,-1.005736E0,-3.3421218E-1,-4.441125E-2,2.4260372E-2,-1.3609093E0,-9.452678E-1,-1.1371349E0,-4.991958E-2,-6.941021E-2,-8.694098E-1,-1.2248998E0,-6.156295E-1,3.240379E-2,-1.7182704E-2,-6.9175154E-1,2.231661E-2,-2.3733495E-2,5.6479838E-2,-1.1093075E0,2.5394684E-1,-1.3631471E0,-1.0108455E0,-9.5371795E-1,-1.2488716E0,1.0099188E-1,-5.9872635E-2,-9.364389E-1,-1.3663219E0,-1.0959101E0,2.4170497E-2,-1.400084E0,-1.0884398E0,5.6414027E-2,-4.1975055E-2,-1.0617338E0,3.73483E-2,-6.3754685E-2,-1.5166168E-2,1.8740064E-2,-4.5872223E-2,2.3553792E-2,-4.0974814E-2,-1.6185857E-2,4.525505E-2,-6.222556E-2,-3.3949625E-2,3.5533614E-2,-1.8748252E-2,-6.9541894E-2,-3.4589034E-2,-6.584632E-2,-3.2093264E-2,-5.1594835E-2,-3.828756E-2,-6.578538E-2,-3.8567066E-2,-3.8486198E-2,2.591671E-2,-6.501698E-3,-5.447654E-2,-6.842061E-2,-3.0020883E-2,-6.2316444E-2,3.4315397E-3,-4.1288275E-2,3.901311E-2,-1.9361038E-2,-7.426475E-2,-3.6090065E-2,-5.563159E-2,5.019003E-3,-5.804366E-2],"categories":[],"categories_nodes":[],"categories_segments":[],"categories_sizes":[],"default_left":[0,0,0,0,0,0,0,0,0,0,0,0,0,0,0,0,0,0,0,0,0,0,0,0,0,0,0,0,0,0,0,0,0,0,0,0,0,0,0,0,0,0,0,0,0,0,0,0,0,0,0,0,0,0,0,0,0,0,0,0,0,0,0,0,0,0,0,0,0,0,0,0,0,0,0,0,0,0,0,0,0,0,0,0,0,0,0,0,0,0,0,0,0],"id":8,"left_children":[1,3,5,7,9,11,13,15,17,19,21,23,25,27,29,31,33,35,37,39,41,43,45,-1,-1,47,49,51,53,-1,55,57,59,-1,-1,61,63,-1,-1,65,67,69,71,73,75,77,-1,79,81,83,85,87,89,-1,-1,91,-1,-1,-1,-1,-1,-1,-1,-1,-1,-1,-1,-1,-1,-1,-1,-1,-1,-1,-1,-1,-1,-1,-1,-1,-1,-1,-1,-1,-1,-1,-1,-1,-1,-1,-1,-1,-1],"loss_changes":[3.2578857E1,1.4126038E1,3.0794678E0,7.5365753E0,6.385193E0,2.178833E0,3.121704E0,3.936329E0,4.4510517E0,1.6165771E0,3.9186707E0,2.0087914E0,1.3572998E0,4.4755554E0,2.295868E0,2.5912628E0,1.1407099E0,5.1271086E0,4.018674E0,5.1948776E0,4.152832E-1,3.1009827E0,4.329504E0,0E0,0E0,4.0197754E-1,2.7871685E0,1.351593E0,5.5491676E0,0E0,6.07796E0,8.3888626E-1,4.9514337E0,0E0,0E0,5.0289936E0,5.0994105E0,0E0,0E0,3.1372375E0,1.2901751E0,1.0703735E0,1.4645615E0,3.3800964E0,7.909241E-1,3.4404674E0,0E0,1.3883514E0,3.3203125E-1,2.9553223E0,2.9069078E0,2.1519585E0,9.1741943E-1,0E0,0E0,1.9144764E0,0E0,0E0,0E0,0E0,0E0,0E0,0E0,0E0,0E0,0E0,0E0,0E0,0E0,0E0,0E0,0E0,0E0,0E0,0E0,0E0,0E0,0E0,0E0,0E0,0E0,0E0,0E0,0E0,0E0,0E0,0E0,0E0,0E0,0E0,0E0,0E0,0E0],"parents":[2147483647,0,0,1,1,2,2,3,3,4,4,5,5,6,6,7,7,8,8,9,9,10,10,11,11,12,12,13,13,14,14,15,15,16,16,17,17,18,18,19,19,20,20,21,21,22,22,25,25,26,26,27,27,28,28,30,30,31,31,32,32,35,35,36,36,39,39,40,40,41,41,42,42,43,43,44,44,45,45,47,47,48,48,49,49,50,50,51,51,52,52,55,55],"right_children":[2,4,6,8,10,12,14,16,18,20,22,24,26,28,30,32,34,36,38,40,42,44,46,-1,-1,48,50,52,54,-1,56,58,60,-1,-1,62,64,-1,-1,66,68,70,72,74,76,78,-1,80,82,84,86,88,90,-1,-1,92,-1,-1,-1,-1,-1,-1,-1,-1,-1,-1,-1,-1,-1,-1,-1,-1,-1,-1,-1,-1,-1,-1,-1,-1,-1,-1,-1,-1,-1,-1,-1,-1,-1,-1,-1,-1,-1],"split_conditions":[-3.8263354E-1,-1.6419752E0,5.619465E-1,-5.3803083E-2,-4.200693E-1,-1.6325686E0,6.072968E-1,1.2154307E0,-1.6861433E0,-8.5247713E-1,1.651664E0,5.1910937E-1,1.6759648E0,5.8379334E-1,1E0,3.3674607E-1,-5.9242755E-1,1.6773875E-1,3.3776724E-1,5.0966287E-1,1.1641942E0,1.19034536E-1,6.925212E-1,-4.441125E-2,2.4260372E-2,-1.2548045E0,1.4565513E0,-7.9837084E-1,3.271764E-1,-6.941021E-2,1E0,1.5799416E0,5.903305E-1,3.240379E-2,-1.7182704E-2,-2.01215E0,-3.7251022E-1,-2.3733495E-2,5.6479838E-2,3.9886186E-1,1E0,1E0,-3.19219E-2,6.0612047E-1,-3.6468804E-1,-7.9837084E-1,-5.9872635E-2,7.608402E-2,1.3008577E0,8.447526E-1,-6.3131094E-1,-3.0527237E-1,6.555431E-1,5.6414027E-2,-4.1975055E-2,-1.4879339E0,3.73483E-2,-6.3754685E-2,-1.5166168E-2,1.8740064E-2,-4.5872223E-2,2.3553792E-2,-4.0974814E-2,-1.6185857E-2,4.525505E-2,-6.222556E-2,-3.3949625E-2,3.5533614E-2,-1.8748252E-2,-6.9541894E-2,-3.4589034E-2,-6.584632E-2,-3.2093264E-2,-5.1594835E-2,-3.828756E-2,-6.578538E-2,-3.8567066E-2,-3.8486198E-2,2.591671E-2,-6.501698E-3,-5.447654E-2,-6.842061E-2,-3.0020883E-2,-6.2316444E-2,3.4315397E-3,-4.1288275E-2,3.901311E-2,-1.9361038E-2,-7.426475E-2,-3.6090065E-2,-5.563159E-2,5.019003E-3,-5.804366E-2],"split_indices":[20,20,12,12,12,18,22,17,20,4,12,20,14,22,42,18,13,18,5,15,5,11,4,0,0,3,18,15,13,0,52,5,18,0,0,11,17,0,0,18,44,52,14,17,22,15,0,20,13,15,12,20,12,0,0,14,0,0,0,0,0,0,0,0,0,0,0,0,0,0,0,0,0,0,0,0,0,0,0,0,0,0,0,0,0,0,0,0,0,0,0,0,0],"split_type":[0,0,0,0,0,0,0,0,0,0,0,0,0,0,0,0,0,0,0,0,0,0,0,0,0,0,0,0,0,0,0,0,0,0,0,0,0,0,0,0,0,0,0,0,0,0,0,0,0,0,0,0,0,0,0,0,0,0,0,0,0,0,0,0,0,0,0,0,0,0,0,0,0,0,0,0,0,0,0,0,0,0,0,0,0,0,0,0,0,0,0,0,0],"sum_hessian":[1.7729338E3,6.3864655E2,1.1342872E3,9.228471E1,5.463618E2,7.511593E2,3.8312796E2,4.2644684E1,4.964003E1,1.9779373E2,3.4856808E2,2.3711011E0,7.487882E2,2.2752097E2,1.55607E2,3.9910107E1,2.7345793E0,4.4990486E1,4.6495433E0,7.001077E1,1.2778296E2,3.383657E2,1.0202371E1,1.1848035E0,1.1862978E0,7.308844E2,1.7903801E1,2.2357413E2,3.9468439E0,1.396066E2,1.6000399E1,2.5496386E1,1.441372E1,1.2458181E0,1.4887613E0,3.0256166E1,1.4734323E1,1.9502554E0,2.6992881E0,6.744686E1,2.56391E0,1.08330536E2,1.9452423E1,2.8278696E2,5.557876E1,7.369855E0,2.832516E0,1.1393497E1,7.194909E2,1.5382963E1,2.5208368E0,3.0597645E1,1.9297649E2,1.4115671E0,2.535277E0,1.4605684E1,1.3947146E0,2.3815659E1,1.6807268E0,3.3099666E0,1.1103753E1,2.7288165E0,2.752735E1,1.1040117E1,3.6942046E0,4.9882E1,1.7564863E1,1.4099674E0,1.1539426E0,1.03010185E2,5.320349E0,9.228224E0,1.02242E1,1.9654892E2,8.623804E1,4.7215195E1,8.363562E0,2.1143231E0,5.2555323E0,2.1129594E0,9.280538E0,7.1674805E2,2.742854E0,1.3561101E1,1.8218622E0,1.1433864E0,1.3774506E0,2.8046217E0,2.7793022E1,1.3853756E1,1.7912273E2,1.1470791E0,1.3458606E1],"tree_param":{"num_deleted":"0","num_feature":"53","num_nodes":"93","size_leaf_vector":"0"}},{"base_weights":[-1.1676065E0,-9.903262E-1,-1.2652267E0,-4.8362264E-1,-1.0324475E0,-1.3085023E0,-1.1783724E0,-8.869807E-1,-1.7241295E-1,-1.1371007E0,-9.3588406E-1,-1.3139828E0,-6.954431E-1,-1.0226971E0,-1.2380403E0,-6.366765E-1,-6.9460206E-2,-4.315888E-1,4.6469602E-1,-1.1620618E0,-6.7663115E-1,-6.9955754E-1,-1.009295E0,-1.1703886E0,-1.3360575E0,-1.1526095E0,2.8840506E-1,-1.0575459E0,-1.0122136E-1,-1.2503274E-1,-1.249249E0,-1.0306585E0,-1.7465425E-1,3.6654583E-1,-6.251395E-1,8.2163733E-1,-2.6399717E-2,-1.1676204E0,3.977196E-4,-8.3186895E-1,1.6584167E-2,2.778925E-2,-7.683741E-1,-1.0239301E0,6.842571E-2,-1.1941665E0,1.1946249E-2,-6.685879E-2,-2.001698E-2,-1.8235045E-2,-6.307613E-2,4.9757015E-2,-2.3836458E-2,-5.856737E-1,-1.1045562E0,-4.526904E-2,7.0395924E-2,-4.3286223E-2,2.670919E-2,-1.3752373E0,-1.1687758E0,-6.960031E-2,-8.849154E-3,-3.1667612E-2,2.7158469E-2,-2.0328267E-2,5.0531454E-2,1.8035619E-2,-4.3278996E-2,1.4640768E-2,5.0437402E-2,-5.885759E-2,-1.7275695E-2,-2.4300246E-2,-6.4290896E-2,-4.7286637E-2,2.0621052E-2,-5.2931715E-2,-2.9016962E-2,-5.212624E-2,-6.387152E-3,-4.9554747E-2,7.021657E-2,2.9802925E-3,-6.0453065E-2,-4.2560402E-2,4.9487654E-2,-6.309331E-2,-4.4904735E-2,-2.3172963E-2,-6.959953E-2,-5.9197385E-2,-2.0612217E-2],"categories":[],"categories_nodes":[],"categories_segments":[],"categories_sizes":[],"default_left":[0,0,0,0,0,0,0,0,0,0,0,0,0,0,0,0,0,0,0,0,0,0,0,0,0,0,0,0,0,0,0,0,0,0,0,0,0,0,0,0,0,0,0,0,0,0,0,0,0,0,0,0,0,0,0,0,0,0,0,0,0,0,0,0,0,0,0,0,0,0,0,0,0,0,0,0,0,0,0,0,0,0,0,0,0,0,0,0,0,0,0,0,0],"id":9,"left_children":[1,3,5,7,9,11,13,15,17,19,21,23,25,27,29,31,-1,33,35,37,39,41,43,45,47,49,51,53,55,57,59,61,63,65,67,69,-1,71,-1,73,-1,75,77,79,81,83,-1,-1,-1,-1,-1,-1,-1,85,87,-1,-1,-1,-1,89,91,-1,-1,-1,-1,-1,-1,-1,-1,-1,-1,-1,-1,-1,-1,-1,-1,-1,-1,-1,-1,-1,-1,-1,-1,-1,-1,-1,-1,-1,-1,-1,-1],"loss_changes":[2.8705566E1,1.2719116E1,2.640625E0,6.0499363E0,4.7053223E0,1.5511475E0,2.2646484E0,1.7905407E0,5.0113096E0,2.3093567E0,4.5434875E0,7.376709E-1,4.2117167E0,3.459732E0,3.212616E0,2.7411103E0,0E0,3.5084484E0,3.5895762E0,1.6618347E0,2.8184266E0,3.774105E0,3.6758728E0,3.7973785E0,1.1584473E-1,6.2415123E-2,2.386557E0,1.7248306E0,7.5287385E0,2.319648E0,1.1020508E0,2.3625698E0,3.1724157E0,2.7878625E0,4.449631E0,3.9151907E-1,0E0,1.5748901E0,0E0,1.6298409E0,0E0,3.1780124E0,3.1258965E0,3.6264954E0,7.053883E0,1.9998779E0,0E0,0E0,0E0,0E0,0E0,0E0,0E0,5.7852273E0,1.9880066E0,0E0,0E0,0E0,0E0,8.595123E-1,1.4601593E0,0E0,0E0,0E0,0E0,0E0,0E0,0E0,0E0,0E0,0E0,0E0,0E0,0E0,0E0,0E0,0E0,0E0,0E0,0E0,0E0,0E0,0E0,0E0,0E0,0E0,0E0,0E0,0E0,0E0,0E0,0E0,0E0],"parents":[2147483647,0,0,1,1,2,2,3,3,4,4,5,5,6,6,7,7,8,8,9,9,10,10,11,11,12,12,13,13,14,14,15,15,17,17,18,18,19,19,20,20,21,21,22,22,23,23,24,24,25,25,26,26,27,27,28,28,29,29,30,30,31,31,32,32,33,33,34,34,35,35,37,37,39,39,41,41,42,42,43,43,44,44,45,45,53,53,54,54,59,59,60,60],"right_children":[2,4,6,8,10,12,14,16,18,20,22,24,26,28,30,32,-1,34,36,38,40,42,44,46,48,50,52,54,56,58,60,62,64,66,68,70,-1,72,-1,74,-1,76,78,80,82,84,-1,-1,-1,-1,-1,-1,-1,86,88,-1,-1,-1,-1,90,92,-1,-1,-1,-1,-1,-1,-1,-1,-1,-1,-1,-1,-1,-1,-1,-1,-1,-1,-1,-1,-1,-1,-1,-1,-1,-1,-1,-1,-1,-1,-1,-1],"split_conditions":[-3.910085E-1,-1.8826344E0,5.619465E-1,-3.9657027E-1,1E0,1.2612869E0,6.704701E-2,-5.406699E-1,7.5431216E-1,1E0,-1.2278048E0,-1.4885484E-1,-1.7264603E-1,1.6899519E-1,-1.3749796E0,-1.4730754E0,-6.9460206E-2,-1.3868752E0,8.4418803E-1,1E0,1.1970141E0,-1.447453E0,1.4767722E0,2.9223523E0,7.270395E0,2.373514E-1,1.8581596E-1,-1.512324E0,1.6317084E0,2.161185E-1,4.58403E-1,-6.6895556E-1,-1.4507532E-1,-2.217829E0,-1.1604232E0,6.277749E-1,-2.6399717E-2,4.1337333E0,3.977196E-4,1E0,1.6584167E-2,-1.8595889E0,1E0,4.1337333E0,1.8938741E-1,-1.1563853E0,1.1946249E-2,-6.685879E-2,-2.001698E-2,-1.8235045E-2,-6.307613E-2,4.9757015E-2,-2.3836458E-2,-1.6180402E0,-8.651488E-2,-4.526904E-2,7.0395924E-2,-4.3286223E-2,2.670919E-2,-1.085019E0,3.1203327E0,-6.960031E-2,-8.849154E-3,-3.1667612E-2,2.7158469E-2,-2.0328267E-2,5.0531454E-2,1.8035619E-2,-4.3278996E-2,1.4640768E-2,5.0437402E-2,-5.885759E-2,-1.7275695E-2,-2.4300246E-2,-6.4290896E-2,-4.7286637E-2,2.0621052E-2,-5.2931715E-2,-2.9016962E-2,-5.212624E-2,-6.387152E-3,-4.9554747E-2,7.021657E-2,2.9802925E-3,-6.0453065E-2,-4.2560402E-2,4.9487654E-2,-6.309331E-2,-4.4904735E-2,-2.3172963E-2,-6.959953E-2,-5.9197385E-2,-2.0612217E-2],"split_indices":[20,20,12,15,36,17,20,15,12,52,20,20,4,22,10,11,0,12,17,35,12,5,11,3,6,20,2,17,2,20,21,15,5,20,5,2,0,6,0,38,0,10,43,6,5,15,0,0,0,0,0,0,0,17,10,0,0,0,0,15,3,0,0,0,0,0,0,0,0,0,0,0,0,0,0,0,0,0,0,0,0,0,0,0,0,0,0,0,0,0,0,0,0],"split_type":[0,0,0,0,0,0,0,0,0,0,0,0,0,0,0,0,0,0,0,0,0,0,0,0,0,0,0,0,0,0,0,0,0,0,0,0,0,0,0,0,0,0,0,0,0,0,0,0,0,0,0,0,0,0,0,0,0,0,0,0,0,0,0,0,0,0,0,0,0,0,0,0,0,0,0,0,0,0,0,0,0,0,0,0,0,0,0,0,0,0,0,0,0],"sum_hessian":[1.7300935E3,6.183331E2,1.1117604E3,4.8413807E1,5.699193E2,7.3264874E2,3.7911163E2,2.0279495E1,2.8134312E1,2.6833176E2,3.015876E2,7.2502386E2,7.6248336E0,1.10071594E2,2.6904004E2,1.5047603E1,5.2318935E0,2.0228104E1,7.906208E0,2.5308864E2,1.524311E1,7.397487E1,2.2761272E2,1.0380428E2,6.212196E2,5.088718E0,2.5361154E0,1.0591825E2,4.1533394E0,2.8035676E0,2.6623648E2,7.4575467E0,7.590056E0,3.7735431E0,1.645456E1,5.941969E0,1.9642392E0,2.5189397E2,1.1946602E0,1.3361062E1,1.8820481E0,6.4455633E0,6.7529305E1,2.2461246E2,3.0002677E0,1.0223208E2,1.5722064E0,6.200495E2,1.170075E0,1.1460935E0,3.9426246E0,1.1621022E0,1.3740132E0,1.0815417E1,9.510284E1,2.970532E0,1.1828074E0,1.1726842E0,1.6308835E0,9.750064E1,1.6873584E2,4.796611E0,2.6609356E0,4.70267E0,2.8873858E0,1.8825885E0,1.8909547E0,3.1281853E0,1.3326374E1,2.223298E0,3.7186706E0,2.485801E2,3.3138714E0,8.758539E0,4.602522E0,1.412261E0,5.0333023E0,2.4727966E1,4.2801334E1,2.1988681E2,4.7256403E0,1.8171651E0,1.1831026E0,1.1650047E0,1.0106708E2,9.6488285E0,1.1665894E0,5.1075115E1,4.402772E1,2.2763627E0,9.522428E1,1.648646E2,3.8712482E0],"tree_param":{"num_deleted":"0","num_feature":"53","num_nodes":"93","size_leaf_vector":"0"}},{"base_weights":[-1.1253439E0,-7.7125347E-1,-1.168684E0,-9.52175E-1,-6.0540974E-1,-1.0636767E0,-1.2343013E0,-9.960988E-1,5.027926E-2,-8.0416E-1,-3.1381938E-1,-1.1330734E0,-9.4536173E-1,-1.2704159E0,-1.1212801E0,-3.816226E-1,-1.0768317E0,4.8396926E-2,-4.1322436E-2,-4.0575963E-1,-1.0283273E0,-3.201969E-2,-7.6281965E-1,-1.1384261E0,-3.3996886E-1,-9.8638064E-1,-4.7363386E-1,-1.2884896E0,-1.0695237E0,-9.143944E-1,-1.2128724E0,-8.842089E-1,2.877095E-1,-7.322263E-1,-1.1615636E0,-5.260189E-1,3.0300925E-2,-4.1995418E-1,-1.173908E0,1.9644287E-1,-5.057251E-1,-1.0976342E0,3.9186144E-1,-1.019288E-2,-1.1420324E0,3.0849323E-2,-4.7503136E-2,8.203E-3,-9.963799E-1,-9.4406927E-1,5.711402E-1,-1.0686088E0,-1.305858E0,-1.1102028E0,-2.3703544E-1,2.972958E-2,-9.4541126E-1,-1.255631E0,-8.1346965E-1,-5.502638E-2,4.39836E-3,3.7905302E-2,-2.7884854E-2,3.159405E-3,-5.222663E-2,-3.2956716E-2,-6.2306106E-2,-5.1786322E-2,-4.3367385E-3,-5.4016214E-2,1.7603146E-2,-6.0902912E-2,-9.076939E-3,-5.4632034E-2,2.0197852E-2,3.429193E-2,-4.8948437E-2,2.3413012E-2,-6.706572E-2,-8.288652E-3,4.513732E-2,-6.37077E-2,-5.5314135E-2,-5.852712E-2,-4.544414E-2,9.21876E-3,-5.5255067E-2,-1.1998961E-2,5.5012353E-2,-5.4885667E-2,6.119209E-3,-6.276771E-2,-6.8257645E-2,-5.832416E-2,-2.199525E-2,-3.5157476E-2,2.6331574E-2,-4.8611633E-2,4.092907E-3,-6.36132E-2,-1.7049897E-2,1.4250256E-2,-4.8529938E-2],"categories":[],"categories_nodes":[],"categories_segments":[],"categories_sizes":[],"default_left":[0,0,0,0,0,0,0,0,0,0,0,0,0,0,0,0,0,0,0,0,0,0,0,0,0,0,0,0,0,0,0,0,0,0,0,0,0,0,0,0,0,0,0,0,0,0,0,0,0,0,0,0,0,0,0,0,0,0,0,0,0,0,0,0,0,0,0,0,0,0,0,0,0,0,0,0,0,0,0,0,0,0,0,0,0,0,0,0,0,0,0,0,0,0,0,0,0,0,0,0,0,0,0],"id":10,"left_children":[1,3,5,7,9,11,13,15,17,19,21,23,25,27,29,31,33,-1,-1,35,37,39,41,43,45,47,49,51,53,55,57,59,61,63,65,67,-1,69,71,73,75,77,79,-1,81,-1,-1,-1,83,85,87,89,91,93,95,-1,97,99,101,-1,-1,-1,-1,-1,-1,-1,-1,-1,-1,-1,-1,-1,-1,-1,-1,-1,-1,-1,-1,-1,-1,-1,-1,-1,-1,-1,-1,-1,-1,-1,-1,-1,-1,-1,-1,-1,-1,-1,-1,-1,-1,-1,-1],"loss_changes":[2.5169922E1,5.0705566E0,9.103027E0,3.9365082E0,5.5974655E0,3.7614746E0,2.347412E0,3.7863083E0,4.546704E0,4.8863907E0,5.359854E0,1.1664734E0,3.860077E0,1.1374512E0,3.2927856E0,4.0806417E0,1.3170166E0,0E0,0E0,3.121542E0,2.8150978E0,3.0418262E0,6.7569733E0,9.9087524E-1,2.8508482E0,2.519638E0,1.0277775E1,1.0131836E0,1.8726578E0,4.088665E0,1.6760101E0,1.514606E0,2.662669E0,4.377412E0,1.6375427E0,4.6397448E0,0E0,4.850977E0,1.074955E0,5.5407085E0,5.817632E0,5.569379E0,1.4075838E0,0E0,2.9769897E-1,0E0,0E0,0E0,2.0325623E0,2.754897E0,3.1715853E0,1.9256821E0,2.3254395E-2,1.7450104E0,1.8687704E0,0E0,2.1244125E0,1.708664E0,3.4031363E0,0E0,0E0,0E0,0E0,0E0,0E0,0E0,0E0,0E0,0E0,0E0,0E0,0E0,0E0,0E0,0E0,0E0,0E0,0E0,0E0,0E0,0E0,0E0,0E0,0E0,0E0,0E0,0E0,0E0,0E0,0E0,0E0,0E0,0E0,0E0,0E0,0E0,0E0,0E0,0E0,0E0,0E0,0E0,0E0],"parents":[2147483647,0,0,1,1,2,2,3,3,4,4,5,5,6,6,7,7,8,8,9,9,10,10,11,11,12,12,13,13,14,14,15,15,16,16,19,19,20,20,21,21,22,22,23,23,24,24,25,25,26,26,27,27,28,28,29,29,30,30,31,31,32,32,33,33,34,34,35,35,37,37,38,38,39,39,40,40,41,41,42,42,44,44,48,48,49,49,50,50,51,51,52,52,53,53,54,54,56,56,57,57,58,58],"right_children":[2,4,6,8,10,12,14,16,18,20,22,24,26,28,30,32,34,-1,-1,36,38,40,42,44,46,48,50,52,54,56,58,60,62,64,66,68,-1,70,72,74,76,78,80,-1,82,-1,-1,-1,84,86,88,90,92,94,96,-1,98,100,102,-1,-1,-1,-1,-1,-1,-1,-1,-1,-1,-1,-1,-1,-1,-1,-1,-1,-1,-1,-1,-1,-1,-1,-1,-1,-1,-1,-1,-1,-1,-1,-1,-1,-1,-1,-1,-1,-1,-1,-1,-1,-1,-1,-1],"split_conditions":[-1.2482411E0,-5.3803083E-2,-1.322943E-1,1.2154307E0,2.1093372E-1,5.0584143E-1,8.7932366E-1,-1.1649704E0,1.2461845E0,5.0584143E-1,1.2117103E0,1E0,1.2823153E0,1.4254806E0,6.704701E-2,-1.744076E0,-1.3556617E0,4.8396926E-2,-4.1322436E-2,1E0,-9.964298E-1,-1.1283389E0,8.41083E-1,-1.6325686E0,-6.5298283E-1,-2.3601737E0,8.0692106E-1,-8.773844E-1,1.2612869E0,8.9264435E-1,2.1921933E0,-8.389812E-1,-1.5043262E0,1E0,-1.9008728E0,1E0,3.0300925E-2,-7.8072536E-1,1.2088406E0,-1.337807E0,-1.9433659E0,-9.917056E-1,-1.4058254E0,-1.019288E-2,-1.2415189E0,3.0849323E-2,-4.7503136E-2,8.203E-3,-1.5421297E-1,-1.1649704E0,8.9264435E-1,-1.5682521E-1,7.8166467E-1,1.7365764E0,-4.1608736E-1,2.972958E-2,5.01375E-2,3.0022326E0,-1.3752784E0,-5.502638E-2,4.39836E-3,3.7905302E-2,-2.7884854E-2,3.159405E-3,-5.222663E-2,-3.2956716E-2,-6.2306106E-2,-5.1786322E-2,-4.3367385E-3,-5.4016214E-2,1.7603146E-2,-6.0902912E-2,-9.076939E-3,-5.4632034E-2,2.0197852E-2,3.429193E-2,-4.8948437E-2,2.3413012E-2,-6.706572E-2,-8.288652E-3,4.513732E-2,-6.37077E-2,-5.5314135E-2,-5.852712E-2,-4.544414E-2,9.21876E-3,-5.5255067E-2,-1.1998961E-2,5.5012353E-2,-5.4885667E-2,6.119209E-3,-6.276771E-2,-6.8257645E-2,-5.832416E-2,-2.199525E-2,-3.5157476E-2,2.6331574E-2,-4.8611633E-2,4.092907E-3,-6.36132E-2,-1.7049897E-2,1.4250256E-2,-4.8529938E-2],"split_indices":[20,12,10,17,3,12,12,17,17,12,2,40,1,5,20,17,12,0,0,34,1,10,5,18,10,10,0,22,17,12,0,10,20,25,11,36,0,2,17,18,11,17,10,0,10,0,0,0,17,17,12,20,10,20,1,0,20,15,18,0,0,0,0,0,0,0,0,0,0,0,0,0,0,0,0,0,0,0,0,0,0,0,0,0,0,0,0,0,0,0,0,0,0,0,0,0,0,0,0,0,0,0,0],"split_type":[0,0,0,0,0,0,0,0,0,0,0,0,0,0,0,0,0,0,0,0,0,0,0,0,0,0,0,0,0,0,0,0,0,0,0,0,0,0,0,0,0,0,0,0,0,0,0,0,0,0,0,0,0,0,0,0,0,0,0,0,0,0,0,0,0,0,0,0,0,0,0,0,0,0,0,0,0,0,0,0,0,0,0,0,0,0,0,0,0,0,0,0,0,0,0,0,0,0,0,0,0,0,0],"sum_hessian":[1.6978766E3,1.8720433E2,1.5106722E3,8.726459E1,9.993974E1,5.875805E2,9.230917E2,8.360756E1,3.6570263E0,5.8385735E1,4.155401E1,3.649471E2,2.226334E2,6.917964E2,2.3129532E2,1.0374194E1,7.323336E1,1.7359724E0,1.9210539E0,2.2034714E1,3.635102E1,2.6188808E1,1.5365199E1,3.6206815E2,2.8789763E0,2.0381937E2,1.8814045E1,6.297277E2,6.206866E1,7.434669E1,1.5694862E2,5.741786E0,4.6324086E0,1.6355825E1,5.6877537E1,2.012301E1,1.9117035E0,7.7690954E0,2.8581924E1,1.806269E1,8.126119E0,1.194965E1,3.415549E0,1.6129313E0,3.604552E2,1.1164634E0,1.7625128E0,1.6235099E0,2.0219585E2,1.3039207E1,5.774837E0,5.067809E1,5.790496E2,5.8858955E1,3.2097065E0,1.1314445E0,7.321524E1,1.3983467E2,1.7113955E1,4.588725E0,1.153061E0,3.042681E0,1.5897274E0,4.836187E0,1.1519638E1,9.460451E0,4.7417088E1,8.686354E0,1.1436657E1,3.9720874E0,3.797008E0,2.7146748E1,1.435177E0,1.9130974E0,1.6149593E1,2.1822581E0,5.9438605E0,1.4850525E0,1.0464598E1,1.9560379E0,1.459511E0,6.9385185E1,2.9107E2,6.3473797E1,1.3872205E2,1.6102558E0,1.1428952E1,2.4955735E0,3.2792635E0,4.954565E1,1.1324393E0,3.2467856E2,2.5437108E2,5.361687E1,5.242086E0,2.042367E0,1.1673396E0,7.1404495E1,1.8107522E0,1.3695312E2,2.881556E0,2.0398347E0,1.50741205E1],"tree_param":{"num_deleted":"0","num_feature":"53","num_nodes":"103","size_leaf_vector":"0"}},{"base_weights":[-1.0975394E0,-7.0784795E-1,-1.1477357E0,-5.7454807E-1,-9.477048E-1,-1.0416805E0,-1.2119417E0,-8.202393E-1,-3.7001237E-1,1.4001365E-2,-9.957859E-1,-1.0457397E0,2.379485E-2,-1.2421302E0,-1.0293432E0,-8.9473283E-1,6.992733E-2,-4.4355112E-1,4.293752E-1,-4.657208E-2,4.6964742E-2,-2.0383446E-1,-1.0553936E0,-1.1081065E0,-8.978119E-1,-1.1096121E0,-1.2752532E0,-4.0668058E-1,-1.0644867E0,1.4533253E-2,-9.3332636E-1,7.021932E-1,-3.5808664E-2,-1.3402642E-1,-6.3254935E-1,1.1590211E0,-3.8992915E-1,-6.9261163E-1,2.9690964E-2,-1.0905644E0,1.4249488E-3,-1.1210747E0,-1.789573E-3,-1.0781907E0,-7.4432874E-1,-1.1254259E0,-3.46378E-1,-1.2866839E0,-7.986377E-1,-7.587966E-1,5.2872982E-2,-1.209272E0,-8.4699243E-1,-1.8993882E-2,-5.2056827E-2,1.1511011E-2,4.3186292E-2,-1.5487375E-2,4.368734E-2,4.158938E-3,-4.7652733E-2,6.963036E-2,1.8910434E-2,-4.8784833E-2,2.4708286E-2,-4.685277E-3,-4.878455E-2,-5.9872594E-2,-3.5364036E-2,-5.634482E-2,1.1751465E-4,4.4704106E-2,-3.0396936E-2,-6.938317E-2,-4.3339584E-2,-3.915141E-2,4.6956137E-2,-5.7873666E-2,-3.5337504E-2,5.4107584E-2,-5.4170053E-2,-1.6138809E-2,-6.446698E-2,-4.630938E-2,1.9480668E-2,-5.6649197E-2,-9.51433E-3,-3.1133398E-2,-6.3863896E-2,-6.2347646E-3,-5.114599E-2],"categories":[],"categories_nodes":[],"categories_segments":[],"categories_sizes":[],"default_left":[0,0,0,0,0,0,0,0,0,0,0,0,0,0,0,0,0,0,0,0,0,0,0,0,0,0,0,0,0,0,0,0,0,0,0,0,0,0,0,0,0,0,0,0,0,0,0,0,0,0,0,0,0,0,0,0,0,0,0,0,0,0,0,0,0,0,0,0,0,0,0,0,0,0,0,0,0,0,0,0,0,0,0,0,0,0,0,0,0,0,0],"id":11,"left_children":[1,3,5,7,9,11,13,15,17,19,21,23,-1,25,27,29,31,33,35,-1,-1,37,39,41,43,45,47,49,51,-1,53,55,-1,57,59,61,63,65,-1,67,-1,69,71,73,75,77,79,81,83,85,-1,87,89,-1,-1,-1,-1,-1,-1,-1,-1,-1,-1,-1,-1,-1,-1,-1,-1,-1,-1,-1,-1,-1,-1,-1,-1,-1,-1,-1,-1,-1,-1,-1,-1,-1,-1,-1,-1,-1,-1],"loss_changes":[3.1806763E1,5.622978E0,8.785645E0,6.054943E0,3.1289978E0,3.9694824E0,3.7547607E0,3.8197823E0,4.356596E0,4.5437193E0,2.81427E0,4.1937866E0,0E0,2.0029297E0,2.5294647E0,2.6665497E0,3.1385808E0,3.7405825E0,4.3247757E0,0E0,0E0,2.6458175E0,2.2971115E0,5.612549E0,3.9610138E0,1.5825195E0,2.329895E0,5.3653603E0,2.991516E0,0E0,2.6441612E0,6.371784E-2,0E0,4.8854804E0,9.331104E0,1.4420795E-1,2.4500759E0,5.8932996E-1,0E0,1.5128098E0,0E0,2.5325317E0,3.5496244E0,3.8262253E0,7.002056E0,1.3240662E0,6.1858487E0,1.1203613E0,2.9480762E0,1.4260521E0,0E0,2.1655731E0,6.7728844E0,0E0,0E0,0E0,0E0,0E0,0E0,0E0,0E0,0E0,0E0,0E0,0E0,0E0,0E0,0E0,0E0,0E0,0E0,0E0,0E0,0E0,0E0,0E0,0E0,0E0,0E0,0E0,0E0,0E0,0E0,0E0,0E0,0E0,0E0,0E0,0E0,0E0,0E0],"parents":[2147483647,0,0,1,1,2,2,3,3,4,4,5,5,6,6,7,7,8,8,9,9,10,10,11,11,13,13,14,14,15,15,16,16,17,17,18,18,21,21,22,22,23,23,24,24,25,25,26,26,27,27,28,28,30,30,31,31,33,33,34,34,35,35,36,36,37,37,39,39,41,41,42,42,43,43,44,44,45,45,46,46,47,47,48,48,49,49,51,51,52,52],"right_children":[2,4,6,8,10,12,14,16,18,20,22,24,-1,26,28,30,32,34,36,-1,-1,38,40,42,44,46,48,50,52,-1,54,56,-1,58,60,62,64,66,-1,68,-1,70,72,74,76,78,80,82,84,86,-1,88,90,-1,-1,-1,-1,-1,-1,-1,-1,-1,-1,-1,-1,-1,-1,-1,-1,-1,-1,-1,-1,-1,-1,-1,-1,-1,-1,-1,-1,-1,-1,-1,-1,-1,-1,-1,-1,-1,-1],"split_conditions":[-1.2278048E0,-4.974734E-1,-1.4885484E-1,-1.4269005E-1,-1.4299595E0,1E0,1.2222422E0,1.1844022E0,2.1921933E0,1E0,-2.3601737E0,5.16407E-1,2.379485E-2,-1.925687E-1,-7.33243E-1,-9.33182E-1,1.6850544E0,2.005544E-1,3.3924264E-1,-4.657208E-2,4.6964742E-2,6.618522E-1,4.7365433E-1,3.2529445E0,2.3982044E-1,1.2461845E0,1.6759648E0,-7.475101E-1,5.9238505E-1,1.4533253E-2,-1.3583612E0,-1.4251113E0,-3.5808664E-2,3.754703E-1,7.567864E-2,2.591823E-1,1.3216038E0,-4.608965E-1,2.9690964E-2,5.387862E-1,1.4249488E-3,7.231434E-3,-9.517686E-1,-5.297628E-1,3.1686065E0,2.1921933E0,-1.0507139E0,-2.01215E0,1.4145346E0,-8.8591397E-1,5.2872982E-2,-5.409569E-1,-1.322943E-1,-1.8993882E-2,-5.2056827E-2,1.1511011E-2,4.3186292E-2,-1.5487375E-2,4.368734E-2,4.158938E-3,-4.7652733E-2,6.963036E-2,1.8910434E-2,-4.8784833E-2,2.4708286E-2,-4.685277E-3,-4.878455E-2,-5.9872594E-2,-3.5364036E-2,-5.634482E-2,1.1751465E-4,4.4704106E-2,-3.0396936E-2,-6.938317E-2,-4.3339584E-2,-3.915141E-2,4.6956137E-2,-5.7873666E-2,-3.5337504E-2,5.4107584E-2,-5.4170053E-2,-1.6138809E-2,-6.446698E-2,-4.630938E-2,1.9480668E-2,-5.6649197E-2,-9.51433E-3,-3.1133398E-2,-6.3863896E-2,-6.2347646E-3,-5.114599E-2],"split_indices":[20,11,20,12,13,35,12,17,0,36,10,13,0,10,2,6,8,17,13,0,0,15,11,2,17,17,14,4,4,0,9,10,0,5,13,2,13,2,0,2,0,22,14,15,6,0,14,11,5,4,0,11,10,0,0,0,0,0,0,0,0,0,0,0,0,0,0,0,0,0,0,0,0,0,0,0,0,0,0,0,0,0,0,0,0,0,0,0,0,0,0],"split_type":[0,0,0,0,0,0,0,0,0,0,0,0,0,0,0,0,0,0,0,0,0,0,0,0,0,0,0,0,0,0,0,0,0,0,0,0,0,0,0,0,0,0,0,0,0,0,0,0,0,0,0,0,0,0,0,0,0,0,0,0,0,0,0,0,0,0,0,0,0,0,0,0,0,0,0,0,0,0,0,0,0,0,0,0,0,0,0,0,0,0,0],"sum_hessian":[1.6665612E3,1.91897E2,1.4746642E3,1.2552959E2,6.636741E1,5.6259564E2,9.120686E2,5.5659885E1,6.9869705E1,3.1938381E0,6.3173573E1,5.614049E2,1.1907256E0,7.7769275E2,1.3437581E2,5.135695E1,4.3029337E0,6.4391235E1,5.4784646E0,1.5764323E0,1.6174058E0,4.7314057E0,5.844217E1,3.9034372E2,1.7106119E2,1.6241333E2,6.152794E2,7.85072E0,1.26525085E2,1.4133873E0,4.994356E1,2.4439707E0,1.8589631E0,2.5059736E1,3.93315E1,2.6784675E0,2.799997E0,3.0153704E0,1.7160356E0,5.6599438E1,1.8427314E0,3.8580798E2,4.5357285E0,7.5870605E1,9.5190575E1,1.586516E2,3.7617412E0,5.99209E2,1.6070452E1,6.717058E0,1.1336619E0,7.322164E1,5.3303436E1,8.880194E0,4.106337E1,1.2415578E0,1.202413E0,2.1928757E1,3.1309807E0,1.2394197E1,2.6937304E1,1.4585848E0,1.2198827E0,1.621826E0,1.178171E0,1.3950046E0,1.6203656E0,4.2596294E1,1.4003141E1,3.8381592E2,1.9920843E0,1.6387221E0,2.8970063E0,2.85343E1,4.7336308E1,9.357434E1,1.6162374E0,1.45732E2,1.2919602E1,1.1208969E0,2.640844E0,1.983081E0,5.972259E2,1.4711795E1,1.3586568E0,3.452052E0,3.265006E0,8.66193E0,6.4559715E1,1.0774763E1,4.2528675E1],"tree_param":{"num_deleted":"0","num_feature":"53","num_nodes":"91","size_leaf_vector":"0"}},{"base_weights":[-1.0608009E0,-8.155309E-1,-1.1382506E0,-4.7328955E-1,-8.647112E-1,-1.072577E0,-1.2299237E0,-6.649961E-1,8.4508345E-2,-1.0438508E0,-7.637134E-1,-1.1361711E0,-8.815317E-1,-6.193685E-2,-7.992962E-1,-8.48592E-1,-2.1417981E-1,3.7910274E-1,-7.88171E-1,4.130021E-3,-1.061431E0,-7.935175E-1,-1.2399704E-1,-1.1422677E0,3.5882007E-2,-9.1692656E-1,-1.9185348E-1,-8.140842E-2,-1.0031303E0,-9.827845E-1,2.0609293E-3,5.910666E-2,-5.355484E-1,7.460158E-1,-6.834253E-1,-3.6195375E-3,-5.426125E-2,-3.6775067E-1,-1.0927007E0,-8.0954313E-1,1.5591206E-1,2.0782813E-1,-4.445864E-2,3.642625E-2,-1.1494472E0,3.4072544E-2,-9.305254E-1,3.1483704E-1,-9.293531E-1,2.0808278E-2,-3.7286606E-2,-1.126799E0,-4.1533393E-1,-5.342368E-2,1.5670305E-2,4.5255568E-2,-2.8004438E-2,1.783357E-2,-4.8395913E-2,6.1057407E-2,8.684259E-3,-3.56117E-3,-4.916705E-2,-4.6056595E-2,2.586157E-2,-5.5543955E-2,-1.0894123E-2,-4.8356663E-2,-3.546792E-2,-4.235364E-2,4.297167E-2,-1.5830232E-2,6.818812E-2,4.556883E-2,-3.2622255E-2,-5.8085527E-2,-3.716637E-2,-4.8217982E-2,-1.551106E-2,4.8447784E-2,-2.6952539E-2,-1.4116883E-2,-5.25901E-2,-1.36160245E-2,-6.113357E-2,1.1325149E-2,-4.0681895E-2],"categories":[],"categories_nodes":[],"categories_segments":[],"categories_sizes":[],"default_left":[0,0,0,0,0,0,0,0,0,0,0,0,0,0,0,0,0,0,0,0,0,0,0,0,0,0,0,0,0,0,0,0,0,0,0,0,0,0,0,0,0,0,0,0,0,0,0,0,0,0,0,0,0,0,0,0,0,0,0,0,0,0,0,0,0,0,0,0,0,0,0,0,0,0,0,0,0,0,0,0,0,0,0,0,0,0,0],"id":12,"left_children":[1,3,5,7,9,11,13,15,17,19,21,23,25,-1,27,29,31,33,35,-1,37,39,41,43,-1,45,47,49,51,53,55,-1,57,59,61,-1,-1,63,65,67,69,71,-1,73,75,-1,77,79,81,-1,-1,83,85,-1,-1,-1,-1,-1,-1,-1,-1,-1,-1,-1,-1,-1,-1,-1,-1,-1,-1,-1,-1,-1,-1,-1,-1,-1,-1,-1,-1,-1,-1,-1,-1,-1,-1],"loss_changes":[3.0268066E1,6.283844E0,6.1798096E0,5.635169E0,5.4715576E0,7.9103394E0,9.570923E-1,3.0412807E0,3.9575927E0,2.507431E0,4.197006E0,7.000366E0,4.4049377E0,0E0,1.8365669E0,3.1222095E0,6.290162E0,4.9211407E0,7.5420094E-1,0E0,2.2094421E0,3.3986664E0,3.032106E0,4.657898E0,0E0,4.5081024E0,4.1882734E0,1.6283493E0,2.677641E-1,2.9573689E0,2.904233E0,0E0,4.5641403E0,2.2050858E0,5.5906475E-1,0E0,0E0,3.757598E0,1.5817719E0,2.655777E0,3.8387885E0,5.664918E0,0E0,3.1692674E0,1.836792E0,0E0,3.4187317E0,4.391047E0,5.944419E-2,0E0,0E0,3.0426311E-1,1.0389526E0,0E0,0E0,0E0,0E0,0E0,0E0,0E0,0E0,0E0,0E0,0E0,0E0,0E0,0E0,0E0,0E0,0E0,0E0,0E0,0E0,0E0,0E0,0E0,0E0,0E0,0E0,0E0,0E0,0E0,0E0,0E0,0E0,0E0,0E0],"parents":[2147483647,0,0,1,1,2,2,3,3,4,4,5,5,6,6,7,7,8,8,9,9,10,10,11,11,12,12,14,14,15,15,16,16,17,17,18,18,20,20,21,21,22,22,23,23,25,25,26,26,27,27,28,28,29,29,30,30,32,32,33,33,34,34,37,37,38,38,39,39,40,40,41,41,43,43,44,44,46,46,47,47,48,48,51,51,52,52],"right_children":[2,4,6,8,10,12,14,16,18,20,22,24,26,-1,28,30,32,34,36,-1,38,40,42,44,-1,46,48,50,52,54,56,-1,58,60,62,-1,-1,64,66,68,70,72,-1,74,76,-1,78,80,82,-1,-1,84,86,-1,-1,-1,-1,-1,-1,-1,-1,-1,-1,-1,-1,-1,-1,-1,-1,-1,-1,-1,-1,-1,-1,-1,-1,-1,-1,-1,-1,-1,-1,-1,-1,-1,-1],"split_conditions":[-7.629939E-1,-1.8826344E0,4.3458164E-1,2.8388003E-1,-4.200693E-1,6.871105E-1,1.6651386E0,3.3674607E-1,1E0,-3.0790558E0,2.4447615E0,1E0,1E0,-6.193685E-2,1E0,-1.7253791E0,5.109254E-1,1E0,1.1135405E0,4.130021E-3,-1.6552141E0,3.2926683E0,1.3420498E0,-9.5337003E-1,3.5882007E-2,-1.5564275E-1,4.4795796E-1,6.889363E-1,1.0064497E0,3.5589492E-1,-6.222225E-1,5.910666E-2,-6.3102543E-1,1.9397798E-1,8.210122E-1,-3.6195375E-3,-5.426125E-2,-5.1921148E-2,-7.73267E-1,-3.167573E-1,-2.9795542E-1,3.6797082E-1,-4.445864E-2,-8.4445417E-1,2.1509147E0,3.4072544E-2,1E0,1.062666E0,1.666123E-1,2.0808278E-2,-3.7286606E-2,1E0,8.9839965E-1,-5.342368E-2,1.5670305E-2,4.5255568E-2,-2.8004438E-2,1.783357E-2,-4.8395913E-2,6.1057407E-2,8.684259E-3,-3.56117E-3,-4.916705E-2,-4.6056595E-2,2.586157E-2,-5.5543955E-2,-1.0894123E-2,-4.8356663E-2,-3.546792E-2,-4.235364E-2,4.297167E-2,-1.5830232E-2,6.818812E-2,4.556883E-2,-3.2622255E-2,-5.8085527E-2,-3.716637E-2,-4.8217982E-2,-1.551106E-2,4.8447784E-2,-2.6952539E-2,-1.4116883E-2,-5.25901E-2,-1.36160245E-2,-6.113357E-2,1.1325149E-2,-4.0681895E-2],"split_indices":[22,20,22,2,12,13,14,18,32,9,6,35,46,0,28,22,18,38,3,0,13,15,12,20,0,12,17,9,7,3,1,0,15,13,12,0,0,18,22,9,13,3,0,13,4,0,44,12,2,0,0,48,20,0,0,0,0,0,0,0,0,0,0,0,0,0,0,0,0,0,0,0,0,0,0,0,0,0,0,0,0,0,0,0,0,0,0],"split_type":[0,0,0,0,0,0,0,0,0,0,0,0,0,0,0,0,0,0,0,0,0,0,0,0,0,0,0,0,0,0,0,0,0,0,0,0,0,0,0,0,0,0,0,0,0,0,0,0,0,0,0,0,0,0,0,0,0,0,0,0,0,0,0,0,0,0,0,0,0,0,0,0,0,0,0,0,0,0,0,0,0,0,0,0,0,0,0],"sum_hessian":[1.641253E3,3.9665234E2,1.2446007E3,5.117234E1,3.4548E2,7.325267E2,5.120741E2,3.794057E1,1.32317705E1,1.21190125E2,2.242899E2,5.458723E2,1.8665431E2,4.9996518E2,1.210893E1,2.6333748E1,1.1606821E1,1.0315207E1,2.9165642E0,1.8054856E0,1.19384636E2,2.140758E2,1.0214098E1,5.4446564E2,1.4067298E0,1.7722925E2,9.425059E0,2.9872956E0,9.121634E0,2.2611414E1,3.7223334E0,1.6704509E0,9.936371E0,7.8888936E0,2.4263132E0,1.2201619E0,1.6964023E0,5.6999016E0,1.1368474E2,2.1066722E2,3.4085774E0,7.632562E0,2.581536E0,3.2716508E0,5.41194E2,1.0808232E0,1.7614844E2,5.9264574E0,3.4986014E0,1.9215885E0,1.0657071E0,6.7784934E0,2.3431406E0,2.137409E1,1.2373252E0,1.1940668E0,2.5282667E0,3.3005583E0,6.6358123E0,3.6910498E0,4.1978436E0,1.2047004E0,1.2216128E0,3.481847E0,2.2180543E0,1.1110616E2,2.5785728E0,7.851306E1,1.3215416E2,1.3210942E0,2.0874834E0,5.7499757E0,1.8825862E0,1.2988956E0,1.9727551E0,5.23525E2,1.7668953E1,1.6651149E2,9.636948E0,3.2794702E0,2.6469874E0,1.0828131E0,2.4157882E0,1.0712498E0,5.7072434E0,1.0624361E0,1.2807045E0],"tree_param":{"num_deleted":"0","num_feature":"53","num_nodes":"87","size_leaf_vector":"0"}},{"base_weights":[-1.0299711E0,-8.220135E-1,-1.1247841E0,-4.9137273E-1,-8.622369E-1,-1.0610454E0,-1.1913902E0,-7.179897E-1,-1.3077335E-1,-8.8209563E-1,-3.6951724E-1,-1.1164272E0,-8.4350497E-1,-1.1995189E0,-5.23742E-1,-9.3097854E-1,-2.5893626E-1,1.9133648E-1,-6.152979E-1,-9.82898E-1,-7.903738E-1,4.0998784E-1,-6.949246E-1,-1.1230185E0,-1.4068493E-1,-3.8826776E-1,-9.377713E-1,-1.2140081E0,-9.329748E-1,-9.3670213E-1,5.520569E-2,-1.0819683E0,3.596063E-2,7.571915E-1,-6.021585E-1,-1.0464518E-1,9.2056537E-1,1.4589651E-1,-1.0583867E0,-1.1583163E0,-8.818597E-1,-1.0391691E0,-7.315939E-1,7.004448E-2,-9.34056E-2,-9.0093803E-1,2.6808074E-2,-1.2550291E0,-1.0624007E0,-4.7314107E-2,4.763239E-2,6.412579E-1,-5.5431783E-1,-1.2753309E0,-7.9846567E-1,-8.01631E-1,-1.2229431E0,-1.0801281E0,-3.9613745E-3,-1.0189718E0,-1.181149E-2,-2.7525518E-2,-5.9915137E-2,-2.6614254E-2,2.9172583E-2,3.1147467E-3,5.327315E-2,3.2511596E-2,-4.8812363E-2,3.5795547E-2,-2.3324752E-2,7.540544E-2,-8.532635E-3,-4.2965464E-2,3.8714785E-2,-6.461492E-2,-2.6417347E-3,-5.942417E-2,-1.8278211E-2,-4.538736E-2,-2.0865021E-2,-6.0482856E-2,-2.1420129E-2,2.4625285E-2,-3.7434965E-2,-4.397555E-2,2.1161672E-2,-5.095304E-2,7.5472365E-3,3.8871763E-3,-6.34075E-2,-5.402867E-2,-3.3318263E-2,-2.2774009E-2,8.198973E-2,-4.8513673E-3,-4.3674026E-2,-1.3076045E-2,-6.532973E-2,7.335765E-3,-4.3380268E-2,-1.91885E-2,-5.9834283E-2,-5.752207E-2,-6.355109E-2,-5.696546E-2,-7.467263E-4,-3.917669E-2,6.188872E-2,-1.184686E-2,-5.6784697E-2],"categories":[],"categories_nodes":[],"categories_segments":[],"categories_sizes":[],"default_left":[0,0,0,0,0,0,0,0,0,0,0,0,0,0,0,0,0,0,0,0,0,0,0,0,0,0,0,0,0,0,0,0,0,0,0,0,0,0,0,0,0,0,0,0,0,0,0,0,0,0,0,0,0,0,0,0,0,0,0,0,0,0,0,0,0,0,0,0,0,0,0,0,0,0,0,0,0,0,0,0,0,0,0,0,0,0,0,0,0,0,0,0,0,0,0,0,0,0,0,0,0,0,0,0,0,0,0,0,0,0,0],"id":13,"left_children":[1,3,5,7,9,11,13,15,17,19,21,23,25,27,29,31,33,35,37,39,41,43,45,47,49,51,53,55,57,59,-1,61,63,65,67,69,71,73,75,77,79,81,83,-1,85,87,-1,89,91,-1,-1,93,95,97,99,101,103,105,107,109,-1,-1,-1,-1,-1,-1,-1,-1,-1,-1,-1,-1,-1,-1,-1,-1,-1,-1,-1,-1,-1,-1,-1,-1,-1,-1,-1,-1,-1,-1,-1,-1,-1,-1,-1,-1,-1,-1,-1,-1,-1,-1,-1,-1,-1,-1,-1,-1,-1,-1,-1],"loss_changes":[3.076294E1,6.3189697E0,3.4107666E0,4.5895195E0,4.0837708E0,5.9473877E0,2.249817E0,3.1782207E0,3.7604642E0,3.2218933E0,5.150358E0,2.753479E0,4.7908707E0,8.8775635E-1,6.5157056E0,3.470272E0,4.804526E0,3.2870197E0,3.3779757E0,2.5577393E0,2.6259766E0,3.2624002E0,4.0091887E0,2.263794E0,4.583788E0,4.1700583E0,3.6281738E0,8.357544E-1,4.273588E0,1.6528177E-1,0E0,5.9915733E-1,1.5992312E0,7.029252E-1,5.2624707E0,3.7226527E0,3.0590727E0,3.4417787E0,1.3811488E0,1.2542801E0,1.2125931E0,3.8418999E0,4.361313E0,0E0,2.4437497E0,1.6800308E0,0E0,2.4758453E0,1.5439453E0,0E0,0E0,4.648561E0,2.7979107E0,5.2012634E-1,4.872959E0,1.7453909E0,2.1264648E-1,1.6856518E0,6.0834355E0,2.7885342E-1,0E0,0E0,0E0,0E0,0E0,0E0,0E0,0E0,0E0,0E0,0E0,0E0,0E0,0E0,0E0,0E0,0E0,0E0,0E0,0E0,0E0,0E0,0E0,0E0,0E0,0E0,0E0,0E0,0E0,0E0,0E0,0E0,0E0,0E0,0E0,0E0,0E0,0E0,0E0,0E0,0E0,0E0,0E0,0E0,0E0,0E0,0E0,0E0,0E0,0E0,0E0],"parents":[2147483647,0,0,1,1,2,2,3,3,4,4,5,5,6,6,7,7,8,8,9,9,10,10,11,11,12,12,13,13,14,14,15,15,16,16,17,17,18,18,19,19,20,20,21,21,22,22,23,23,24,24,25,25,26,26,27,27,28,28,29,29,31,31,32,32,33,33,34,34,35,35,36,36,37,37,38,38,39,39,40,40,41,41,42,42,44,44,45,45,47,47,48,48,51,51,52,52,53,53,54,54,55,55,56,56,57,57,58,58,59,59],"right_children":[2,4,6,8,10,12,14,16,18,20,22,24,26,28,30,32,34,36,38,40,42,44,46,48,50,52,54,56,58,60,-1,62,64,66,68,70,72,74,76,78,80,82,84,-1,86,88,-1,90,92,-1,-1,94,96,98,100,102,104,106,108,110,-1,-1,-1,-1,-1,-1,-1,-1,-1,-1,-1,-1,-1,-1,-1,-1,-1,-1,-1,-1,-1,-1,-1,-1,-1,-1,-1,-1,-1,-1,-1,-1,-1,-1,-1,-1,-1,-1,-1,-1,-1,-1,-1,-1,-1,-1,-1,-1,-1,-1,-1],"split_conditions":[-5.42931E-1,-1.8159307E0,3.8804728E-1,-3.416944E-2,2.4447615E0,5.762753E-1,1.7012864E0,3.0433056E-1,-1.5293144E0,1E0,-1.3210467E0,1.7151456E0,5.785627E-1,1.8785088E0,1.3162228E0,-1.8597467E0,-7.609557E-1,1.1110857E0,1E0,-4.9574047E-1,-7.7972496E-1,-7.3589224E-1,1.3497868E0,-6.838644E-1,7.589397E-2,-1.7891616E-1,-4.3714577E-1,-1.5791438E0,3.194469E-2,2.1105795E0,5.520569E-2,-9.669792E-1,2.9803303E-1,-2.133984E0,5.903305E-1,-4.9574047E-1,1.4518323E0,1E0,1.1021585E0,1E0,1.238353E0,8.713722E-1,-7.609557E-1,7.004448E-2,-1.7734623E0,2.1918156E0,2.6808074E-2,-1.132174E0,6.5013415E-1,-4.7314107E-2,4.763239E-2,4.0763322E-1,1.7858738E-1,-8.5004854E-1,-2.035139E0,-1.0220991E-1,1.4852592E-1,1E0,-9.8102945E-1,-7.064525E-1,-1.181149E-2,-2.7525518E-2,-5.9915137E-2,-2.6614254E-2,2.9172583E-2,3.1147467E-3,5.327315E-2,3.2511596E-2,-4.8812363E-2,3.5795547E-2,-2.3324752E-2,7.540544E-2,-8.532635E-3,-4.2965464E-2,3.8714785E-2,-6.461492E-2,-2.6417347E-3,-5.942417E-2,-1.8278211E-2,-4.538736E-2,-2.0865021E-2,-6.0482856E-2,-2.1420129E-2,2.4625285E-2,-3.7434965E-2,-4.397555E-2,2.1161672E-2,-5.095304E-2,7.5472365E-3,3.8871763E-3,-6.34075E-2,-5.402867E-2,-3.3318263E-2,-2.2774009E-2,8.198973E-2,-4.8513673E-3,-4.3674026E-2,-1.3076045E-2,-6.532973E-2,7.335765E-3,-4.3380268E-2,-1.91885E-2,-5.9834283E-2,-5.752207E-2,-6.355109E-2,-5.696546E-2,-7.467263E-4,-3.917669E-2,6.188872E-2,-1.184686E-2,-5.6784697E-2],"split_indices":[22,22,22,4,6,3,14,18,11,36,11,5,2,18,5,22,15,5,43,9,15,15,14,5,22,7,11,18,6,16,0,14,17,11,18,9,5,28,2,46,6,17,15,0,11,7,0,15,4,0,0,2,17,9,17,3,11,34,5,18,0,0,0,0,0,0,0,0,0,0,0,0,0,0,0,0,0,0,0,0,0,0,0,0,0,0,0,0,0,0,0,0,0,0,0,0,0,0,0,0,0,0,0,0,0,0,0,0,0,0,0],"split_type":[0,0,0,0,0,0,0,0,0,0,0,0,0,0,0,0,0,0,0,0,0,0,0,0,0,0,0,0,0,0,0,0,0,0,0,0,0,0,0,0,0,0,0,0,0,0,0,0,0,0,0,0,0,0,0,0,0,0,0,0,0,0,0,0,0,0,0,0,0,0,0,0,0,0,0,0,0,0,0,0,0,0,0,0,0,0,0,0,0,0,0,0,0,0,0,0,0,0,0,0,0,0,0,0,0,0,0,0,0,0,0],"sum_hessian":[1.6061176E3,5.0598578E2,1.1001318E3,5.6311954E1,4.4967383E2,5.7081793E2,5.2931384E2,3.397158E1,2.2340374E1,4.314926E2,1.8181227E1,4.5169333E2,1.1912463E2,5.221598E2,7.1540594E0,2.2502817E1,1.1468764E1,1.378276E1,8.557614E0,2.0094159E2,2.3055101E2,5.2779975E0,1.290323E1,4.485126E2,3.1807148E0,2.131375E1,9.781088E1,4.9186765E2,3.0292143E1,6.045098E0,1.1089619E0,1.9360645E1,3.1421716E0,2.5912132E0,8.877551E0,1.0412856E1,3.3699033E0,3.39536E0,5.1622543E0,6.961498E1,1.3132661E2,4.087253E1,1.8967848E2,1.17742E0,4.1005774E0,1.1283237E1,1.6199924E0,1.3494064E2,3.1357196E2,1.908775E0,1.2719398E0,2.5627327E0,1.8751017E1,2.6191017E1,7.1619865E1,1.2355167E1,4.7951248E2,2.6009624E1,4.282517E0,5.002828E0,1.0422693E0,4.5063114E0,1.4854334E1,1.5554893E0,1.5866823E0,1.1656708E0,1.4255426E0,1.8720493E0,7.0055017E0,2.8871891E0,7.525667E0,1.9421513E0,1.427752E0,1.1647439E0,2.230616E0,3.956686E0,1.2055686E0,6.658211E1,3.0328798E0,1.2349109E2,7.8355165E0,3.118661E1,9.685922E0,2.2310023E0,1.8744748E2,1.3476521E0,2.7529252E0,1.0172144E1,1.1110939E0,1.267515E0,1.3367313E2,2.9816187E2,1.5410093E1,1.4804928E0,1.0822399E0,8.24366E0,1.0507358E1,1.0636698E0,2.5127348E1,4.8053827E0,6.681448E1,6.962335E0,5.3928328E0,2.0113458E2,2.783779E2,2.4574701E1,1.434924E0,2.8575337E0,1.4249833E0,1.0432185E0,3.9596097E0],"tree_param":{"num_deleted":"0","num_feature":"53","num_nodes":"111","size_leaf_vector":"0"}},{"base_weights":[-1.0009291E0,-7.25355E-1,-1.0854448E0,-5.309403E-1,-8.329484E-1,-1.14335E0,-9.753865E-1,-7.9627657E-1,-3.053196E-1,-8.5713416E-1,-3.406491E-1,-1.1497434E0,-5.696858E-1,-3.6044535E-1,-1.0077702E0,-8.511744E-1,3.4307647E-2,-4.5569715E-1,8.462272E-2,-8.917091E-1,-5.151111E-1,-8.735581E-1,-7.26395E-2,-1.044305E0,-1.1911124E0,-1.0195274E0,-4.386777E-2,2.760361E-2,-9.608378E-1,-9.230749E-1,-1.1871113E0,-3.563518E-1,-9.752829E-1,-3.182713E-2,3.5980567E-2,-8.667709E-1,-2.9043692E-1,4.9933052E-1,-4.813846E-1,-9.313787E-1,-5.570948E-1,-8.3323E-1,2.15197E-1,-1.2554432E-2,-5.011354E-2,-4.6044897E-2,2.489021E-1,-1.0760362E0,-5.264932E-1,-1.2108691E0,-9.730499E-1,-1.3034472E-2,-5.6881037E-2,5.11641E-1,-4.5292832E-2,3.143035E-1,-6.0448945E-1,9.014091E-3,-1.1424346E0,-9.642686E-1,-6.103219E-1,-1.2060215E0,-2.915452E-1,6.303025E-3,-4.1077834E-2,-6.0548414E-2,-3.2501604E-2,-5.3114366E-2,1.7260786E-2,-1.8328933E-2,5.243779E-2,4.2646613E-2,-2.0123838E-2,-3.6562137E-2,9.649746E-3,3.3311422E-3,-4.6940535E-2,2.3962095E-2,-3.718097E-2,7.6513574E-3,-5.057449E-2,-4.2178493E-2,2.7887369E-2,3.6031123E-2,-1.8341385E-2,-1.50172105E-2,-5.443274E-2,1.1192906E-2,-3.6218423E-2,-6.0784407E-2,-1.9692712E-2,-5.1047456E-2,2.4522433E-2,-2.3449527E-2,6.0480576E-2,3.0452017E-2,-4.472566E-2,-5.3471416E-2,2.4312055E-2,-1.540186E-2,-6.165668E-2,-5.2578505E-2,-4.1042764E-2,-4.5155315E-3,-4.8239682E-2,-6.3278876E-2,-4.569739E-2,1.8466767E-2,-4.186863E-2],"categories":[],"categories_nodes":[],"categories_segments":[],"categories_sizes":[],"default_left":[0,0,0,0,0,0,0,0,0,0,0,0,0,0,0,0,0,0,0,0,0,0,0,0,0,0,0,0,0,0,0,0,0,0,0,0,0,0,0,0,0,0,0,0,0,0,0,0,0,0,0,0,0,0,0,0,0,0,0,0,0,0,0,0,0,0,0,0,0,0,0,0,0,0,0,0,0,0,0,0,0,0,0,0,0,0,0,0,0,0,0,0,0,0,0,0,0,0,0,0,0,0,0,0,0,0,0,0,0],"id":14,"left_children":[1,3,5,7,9,11,13,15,17,19,21,23,25,27,29,31,33,35,37,39,41,43,45,47,49,51,53,55,57,59,61,63,65,-1,-1,67,69,71,73,75,77,79,81,-1,-1,-1,83,85,87,89,91,-1,-1,93,-1,95,97,-1,99,101,103,105,107,-1,-1,-1,-1,-1,-1,-1,-1,-1,-1,-1,-1,-1,-1,-1,-1,-1,-1,-1,-1,-1,-1,-1,-1,-1,-1,-1,-1,-1,-1,-1,-1,-1,-1,-1,-1,-1,-1,-1,-1,-1,-1,-1,-1,-1,-1],"loss_changes":[3.6053833E1,7.386841E0,6.58667E0,7.9044876E0,2.5558624E0,2.2283936E0,8.069366E0,2.852707E0,4.446783E0,2.228836E0,1.7732489E0,2.1429443E0,2.4735725E0,5.3247137E0,5.005951E0,3.2218513E0,2.6649437E0,3.4445763E0,5.3494077E0,2.203415E0,5.578033E0,8.5850954E-2,2.8605123E0,3.1617584E0,1.1935425E0,2.1359348E-1,3.3143747E0,2.8693714E0,2.0617867E0,2.9846954E0,1.7714386E0,3.072762E0,2.7307625E0,0E0,0E0,3.9443626E0,4.4950476E0,4.505542E0,1.7777758E0,1.4114227E0,5.0390825E0,3.036687E0,3.3159773E0,0E0,0E0,0E0,2.5248675E0,1.756424E0,2.3982024E0,1.4925537E0,4.0637245E0,0E0,0E0,3.482758E0,0E0,4.403161E0,3.0331168E0,0E0,2.151699E-1,2.1835632E0,6.3650045E0,9.733124E-1,1.7201248E0,0E0,0E0,0E0,0E0,0E0,0E0,0E0,0E0,0E0,0E0,0E0,0E0,0E0,0E0,0E0,0E0,0E0,0E0,0E0,0E0,0E0,0E0,0E0,0E0,0E0,0E0,0E0,0E0,0E0,0E0,0E0,0E0,0E0,0E0,0E0,0E0,0E0,0E0,0E0,0E0,0E0,0E0,0E0,0E0,0E0,0E0],"parents":[2147483647,0,0,1,1,2,2,3,3,4,4,5,5,6,6,7,7,8,8,9,9,10,10,11,11,12,12,13,13,14,14,15,15,16,16,17,17,18,18,19,19,20,20,21,21,22,22,23,23,24,24,25,25,26,26,27,27,28,28,29,29,30,30,31,31,32,32,35,35,36,36,37,37,38,38,39,39,40,40,41,41,42,42,46,46,47,47,48,48,49,49,50,50,53,53,55,55,56,56,58,58,59,59,60,60,61,61,62,62],"right_children":[2,4,6,8,10,12,14,16,18,20,22,24,26,28,30,32,34,36,38,40,42,44,46,48,50,52,54,56,58,60,62,64,66,-1,-1,68,70,72,74,76,78,80,82,-1,-1,-1,84,86,88,90,92,-1,-1,94,-1,96,98,-1,100,102,104,106,108,-1,-1,-1,-1,-1,-1,-1,-1,-1,-1,-1,-1,-1,-1,-1,-1,-1,-1,-1,-1,-1,-1,-1,-1,-1,-1,-1,-1,-1,-1,-1,-1,-1,-1,-1,-1,-1,-1,-1,-1,-1,-1,-1,-1,-1,-1],"split_conditions":[-7.5222546E-1,-1.4106454E0,5.5196357E-1,-5.3803083E-2,-7.744553E-1,1.2612869E0,-7.629939E-1,-3.3637986E-1,8.5032296E-1,1.0509527E0,1E0,-1.4885484E-1,-6.014484E-1,-5.035813E-1,7.08603E-1,-1.3754607E0,1E0,-1.2703155E0,2.4503762E-1,1.3296474E0,1.0064497E0,-1.2703155E0,-9.783237E-1,1.5437336E0,1.0839032E0,-6.9103557E-1,5.2476364E-1,2.0678174E-1,-1.4036047E0,1.0175728E0,1.6504554E0,-1.8375157E0,1.7037115E-1,-3.182713E-2,3.5980567E-2,1E0,3.4753072E-1,2.0690136E0,1.0050964E0,-1.40026E0,1.3651938E0,-1.5298625E0,-1.5791438E0,-1.2554432E-2,-5.011354E-2,-4.6044897E-2,2.2360837E-1,-1.9589906E0,1.5743155E0,3.0262928E0,1.6504554E0,-1.3034472E-2,-5.6881037E-2,4.58403E-1,-4.5292832E-2,1.1374477E0,3.7442487E-1,9.014091E-3,-8.105098E-1,2.6892674E-1,-3.2413372E-1,1.5142608E0,8.0692106E-1,6.303025E-3,-4.1077834E-2,-6.0548414E-2,-3.2501604E-2,-5.3114366E-2,1.7260786E-2,-1.8328933E-2,5.243779E-2,4.2646613E-2,-2.0123838E-2,-3.6562137E-2,9.649746E-3,3.3311422E-3,-4.6940535E-2,2.3962095E-2,-3.718097E-2,7.6513574E-3,-5.057449E-2,-4.2178493E-2,2.7887369E-2,3.6031123E-2,-1.8341385E-2,-1.50172105E-2,-5.443274E-2,1.1192906E-2,-3.6218423E-2,-6.0784407E-2,-1.9692712E-2,-5.1047456E-2,2.4522433E-2,-2.3449527E-2,6.0480576E-2,3.0452017E-2,-4.472566E-2,-5.3471416E-2,2.4312055E-2,-1.540186E-2,-6.165668E-2,-5.2578505E-2,-4.1042764E-2,-4.5155315E-3,-4.8239682E-2,-6.3278876E-2,-4.569739E-2,1.8466767E-2,-4.186863E-2],"split_indices":[20,20,12,12,20,17,22,10,2,17,28,20,2,20,22,12,30,9,17,12,7,9,12,14,17,14,1,18,14,1,14,20,14,0,0,45,1,3,17,1,12,9,18,0,0,0,1,10,14,9,14,0,0,21,0,17,1,0,10,17,10,12,0,0,0,0,0,0,0,0,0,0,0,0,0,0,0,0,0,0,0,0,0,0,0,0,0,0,0,0,0,0,0,0,0,0,0,0,0,0,0,0,0,0,0,0,0,0,0],"split_type":[0,0,0,0,0,0,0,0,0,0,0,0,0,0,0,0,0,0,0,0,0,0,0,0,0,0,0,0,0,0,0,0,0,0,0,0,0,0,0,0,0,0,0,0,0,0,0,0,0,0,0,0,0,0,0,0,0,0,0,0,0,0,0,0,0,0,0,0,0,0,0,0,0,0,0,0,0,0,0,0,0,0,0,0,0,0,0,0,0,0,0,0,0,0,0,0,0,0,0,0,0,0,0,0,0,0,0,0,0],"sum_hessian":[1.5808239E3,3.7327985E2,1.2075441E3,1.3509886E2,2.3818098E2,7.85093E2,4.2245108E2,6.092273E1,7.417613E1,2.2632114E2,1.1859845E1,7.7544635E2,9.646618E0,2.1740808E1,4.0071027E2,5.712241E1,3.80032E0,5.341032E1,2.0765812E1,2.0408331E2,2.2237825E1,3.2125661E0,8.647279E0,2.2590851E2,5.4953784E2,4.692882E0,4.953736E0,1.3785142E1,7.9556656E0,2.7634912E2,1.24361145E2,1.2230498E1,4.489191E1,1.9563669E0,1.8439531E0,1.4097887E1,3.9312435E1,1.2052713E1,8.713099E0,1.808585E2,2.3224808E1,1.5392145E1,6.8456793E0,1.056068E0,2.1564982E0,1.8645099E0,6.782769E0,2.1184851E2,1.405999E1,4.997108E2,4.9827072E1,1.0639148E0,3.6289675E0,3.2595558E0,1.6941799E0,9.829507E0,3.9556346E0,1.0932344E0,6.8624315E0,2.4234581E2,3.4003315E1,1.21450005E2,2.9111426E0,6.362097E0,5.8684015E0,2.4450937E1,2.0440973E1,1.2245907E1,1.8519804E0,3.7884712E1,1.4277209E0,8.696847E0,3.3558662E0,6.2960773E0,2.4170208E0,1.2780017E0,1.795805E2,3.3031378E0,1.992167E1,2.3778374E0,1.3014308E1,1.3158836E0,5.5297956E0,3.744043E0,3.038726E0,3.7880762E0,2.0806044E2,2.906628E0,1.1153362E1,4.962955E2,3.4152782E0,4.854076E1,1.2863125E0,1.4917495E0,1.7678064E0,8.301566E0,1.5279411E0,2.7871175E0,1.1685171E0,1.1038322E0,5.758599E0,1.4670694E2,9.563887E1,1.4291869E1,1.9711447E1,9.811132E1,2.3338684E1,1.4630495E0,1.4480929E0],"tree_param":{"num_deleted":"0","num_feature":"53","num_nodes":"109","size_leaf_vector":"0"}},{"base_weights":[-9.607815E-1,-7.4548674E-1,-1.0581589E0,-3.0332533E-1,-7.959224E-1,-1.1244365E0,-9.331014E-1,5.0288266E-1,-4.496504E-1,-9.3458265E-1,-6.98587E-1,-1.1286646E0,-2.1694037E-1,-8.1641823E-1,-1.0605237E0,-3.296448E-1,1.0933853E0,-7.680092E-1,6.955754E-2,-9.5186687E-1,-4.1338307E-1,-7.122925E-1,6.655355E-1,-1.1339619E0,-4.753552E-1,-3.2671604E-2,2.3286244E-2,-1.1570007E0,-7.423097E-1,-6.8957853E-1,-1.1082202E0,6.0925353E-3,-4.1226864E-2,9.37169E-3,6.971549E-2,-9.001041E-1,2.50279E-2,6.907749E-1,-2.1607932E-1,-1.1299684E-1,-9.6239394E-1,3.6998924E-2,-7.1952623E-1,-4.391003E-1,-7.8534484E-1,6.140999E-2,-1.1390537E-2,-6.907901E-1,-1.1421407E0,3.8578093E-2,-8.071615E-1,-1.20023E0,-4.4086277E-1,-9.3191487E-1,-5.9108704E-1,1.0048728E-1,-1.0804789E0,7.782609E-3,-1.1192302E0,-4.9440946E-2,2.4615616E-2,6.889812E-2,-5.171518E-3,-2.6270801E-2,2.1465171E-2,-3.86518E-2,2.945595E-2,-2.5192235E-2,-4.9272966E-2,-4.8194528E-2,1.4125869E-2,6.2577934E-3,-2.8851096E-2,-4.173648E-2,-2.00959E-2,3.1688355E-3,-4.3119047E-2,-5.48923E-2,-6.155747E-2,-5.4141548E-2,1.0883531E-2,-6.122566E-2,-1.3405341E-2,-4.1710638E-2,1.2154754E-2,-5.7298034E-2,-3.447816E-2,-3.2726225E-2,1.54422885E-2,-4.5500994E-2,2.7744085E-2,5.630214E-3,-5.971523E-2,-5.673051E-2,-4.1497373E-3],"categories":[],"categories_nodes":[],"categories_segments":[],"categories_sizes":[],"default_left":[0,0,0,0,0,0,0,0,0,0,0,0,0,0,0,0,0,0,0,0,0,0,0,0,0,0,0,0,0,0,0,0,0,0,0,0,0,0,0,0,0,0,0,0,0,0,0,0,0,0,0,0,0,0,0,0,0,0,0,0,0,0,0,0,0,0,0,0,0,0,0,0,0,0,0,0,0,0,0,0,0,0,0,0,0,0,0,0,0,0,0,0,0,0,0],"id":15,"left_children":[1,3,5,7,9,11,13,15,17,19,21,23,25,27,29,31,33,35,37,39,41,43,45,47,49,-1,-1,51,53,55,57,-1,-1,-1,-1,59,-1,61,63,65,67,-1,69,71,73,-1,-1,75,77,-1,79,81,83,85,87,89,91,-1,93,-1,-1,-1,-1,-1,-1,-1,-1,-1,-1,-1,-1,-1,-1,-1,-1,-1,-1,-1,-1,-1,-1,-1,-1,-1,-1,-1,-1,-1,-1,-1,-1,-1,-1,-1,-1],"loss_changes":[3.1383667E1,1.0492218E1,7.689331E0,6.230262E0,5.1697693E0,2.38031E0,4.651367E0,4.4361496E0,7.261181E0,1.182785E0,5.2871704E0,1.8171387E0,1.6186674E0,4.1398163E0,2.314911E0,1.0408505E0,1.124115E0,4.99411E0,3.252985E0,1.3800659E0,3.1396956E0,4.751541E0,1.8268555E0,1.656189E0,3.6006627E0,0E0,0E0,5.111313E-1,4.192848E0,7.049636E0,2.2970428E0,0E0,0E0,0E0,0E0,3.564436E0,0E0,3.2794013E0,2.7697377E0,1.9487886E0,1.263092E0,0E0,1.8252883E0,4.4416733E0,3.4557114E0,0E0,0E0,1.964046E0,1.2537842E0,0E0,1.9798222E0,3.7584305E-1,1.1426592E0,2.9277E0,5.6125984E0,4.340893E0,2.1879349E0,0E0,2.3181152E0,0E0,0E0,0E0,0E0,0E0,0E0,0E0,0E0,0E0,0E0,0E0,0E0,0E0,0E0,0E0,0E0,0E0,0E0,0E0,0E0,0E0,0E0,0E0,0E0,0E0,0E0,0E0,0E0,0E0,0E0,0E0,0E0,0E0,0E0,0E0,0E0],"parents":[2147483647,0,0,1,1,2,2,3,3,4,4,5,5,6,6,7,7,8,8,9,9,10,10,11,11,12,12,13,13,14,14,15,15,16,16,17,17,18,18,19,19,20,20,21,21,22,22,23,23,24,24,27,27,28,28,29,29,30,30,35,35,37,37,38,38,39,39,40,40,42,42,43,43,44,44,47,47,48,48,50,50,51,51,52,52,53,53,54,54,55,55,56,56,58,58],"right_children":[2,4,6,8,10,12,14,16,18,20,22,24,26,28,30,32,34,36,38,40,42,44,46,48,50,-1,-1,52,54,56,58,-1,-1,-1,-1,60,-1,62,64,66,68,-1,70,72,74,-1,-1,76,78,-1,80,82,84,86,88,90,92,-1,94,-1,-1,-1,-1,-1,-1,-1,-1,-1,-1,-1,-1,-1,-1,-1,-1,-1,-1,-1,-1,-1,-1,-1,-1,-1,-1,-1,-1,-1,-1,-1,-1,-1,-1,-1,-1],"split_conditions":[-5.542026E-1,-1.8826344E0,5.619465E-1,-1.1941713E0,-3.5021222E-1,1.2747416E0,3.7870625E-1,-1.3589416E0,4.1831362E-1,8.5312736E-1,-3.9011234E-1,1E0,1.4364266E0,-1.1604232E0,1E0,-1.5393435E0,-2.2363737E0,9.139366E-1,-1.482182E-1,-3.0790558E0,-1.4879339E0,-1.3795228E0,5.925931E-1,-7.990707E-1,-6.171925E-1,-3.2671604E-2,2.3286244E-2,6.6927564E-1,-1.0020911E-1,-8.7912107E-1,-5.144255E-1,6.0925353E-3,-4.1226864E-2,9.37169E-3,6.971549E-2,1E0,2.50279E-2,1E0,1.37354E0,-1.0909593E0,-1.5179139E0,3.6998924E-2,-6.75346E-1,-5.8172363E-1,1.5443588E0,6.140999E-2,-1.1390537E-2,-1.7891616E-1,7.8166467E-1,3.8578093E-2,9.727189E-1,1E0,3.8999192E-2,1.1256026E0,2.4702642E0,1E0,-7.33243E-1,7.782609E-3,1.6870339E0,-4.9440946E-2,2.4615616E-2,6.889812E-2,-5.171518E-3,-2.6270801E-2,2.1465171E-2,-3.86518E-2,2.945595E-2,-2.5192235E-2,-4.9272966E-2,-4.8194528E-2,1.4125869E-2,6.2577934E-3,-2.8851096E-2,-4.173648E-2,-2.00959E-2,3.1688355E-3,-4.3119047E-2,-5.48923E-2,-6.155747E-2,-5.4141548E-2,1.0883531E-2,-6.122566E-2,-1.3405341E-2,-4.1710638E-2,1.2154754E-2,-5.7298034E-2,-3.447816E-2,-3.2726225E-2,1.54422885E-2,-4.5500994E-2,2.7744085E-2,5.630214E-3,-5.971523E-2,-5.673051E-2,-4.1497373E-3],"split_indices":[20,20,12,14,13,17,22,14,13,11,22,40,5,5,48,14,10,3,4,9,14,20,13,22,10,0,0,17,11,14,13,0,0,0,0,42,0,25,3,14,19,0,22,4,3,0,0,7,10,0,10,49,10,12,3,41,2,0,14,0,0,0,0,0,0,0,0,0,0,0,0,0,0,0,0,0,0,0,0,0,0,0,0,0,0,0,0,0,0,0,0,0,0,0,0],"split_type":[0,0,0,0,0,0,0,0,0,0,0,0,0,0,0,0,0,0,0,0,0,0,0,0,0,0,0,0,0,0,0,0,0,0,0,0,0,0,0,0,0,0,0,0,0,0,0,0,0,0,0,0,0,0,0,0,0,0,0,0,0,0,0,0,0,0,0,0,0,0,0,0,0,0,0,0,0,0,0,0,0,0,0,0,0,0,0,0,0,0,0,0,0,0,0],"sum_hessian":[1.5335985E3,4.803136E2,1.0532849E3,4.9896152E1,4.3041742E2,6.832085E2,3.7007645E2,7.2905617E0,4.260559E1,1.7397609E2,2.5644135E2,6.797976E2,3.4108922E0,1.9704529E2,1.7303116E2,3.2086139E0,4.081948E0,2.611417E1,1.649142E1,1.6759204E2,6.3840494E0,2.5436356E2,2.0777798E0,6.7360004E2,6.1975737E0,2.1067023E0,1.3041897E0,3.2602234E1,1.6444305E2,2.147484E1,1.5155632E2,2.0720472E0,1.1365666E0,1.4224464E0,2.6595016E0,2.3914434E1,2.1997359E0,4.7476425E0,1.1743778E1,2.2224886E0,1.6536955E2,1.041859E0,5.3421907E0,5.5145996E1,1.9921756E2,1.0448573E0,1.0329225E0,1.3754798E1,6.598452E2,1.0240164E0,5.1735573E0,3.0108759E1,2.493475E0,7.06715E1,9.377155E1,7.3540936E0,1.4120748E1,1.1953938E0,1.5036093E2,2.2754532E1,1.1599022E0,2.1512496E0,2.5963929E0,8.064357E0,3.679421E0,1.0935059E0,1.1289829E0,9.013883E0,1.5635568E2,4.3254385E0,1.0167519E0,1.0849944E1,4.429605E1,1.754437E2,2.3773869E1,2.6663682E0,1.1088429E1,4.4949213E2,2.1035312E2,4.032313E0,1.1412443E0,2.903858E1,1.0701804E0,1.4435772E0,1.0498978E0,3.5547405E1,3.51241E1,8.785149E1,5.920067E0,1.9701211E0,5.383972E0,1.2307869E0,1.288996E1,1.4806834E2,2.2925882E0],"tree_param":{"num_deleted":"0","num_feature":"53","num_nodes":"95","size_leaf_vector":"0"}},{"base_weights":[-9.5074946E-1,-7.2895545E-1,-1.0402142E0,-6.685142E-1,-1.041504E0,-9.138258E-1,-1.0943662E0,-8.2648206E-1,-5.814561E-1,-1.073642E0,-1.6164562E-2,-7.825138E-1,-1.0426383E0,-1.1592072E0,-1.0157042E0,-1.7287146E-1,-8.5914433E-1,-3.588277E-1,-6.870592E-1,-1.2297211E0,-7.4138147E-1,3.469236E-2,-3.633371E-2,-8.5668135E-1,-2.2516754E-1,-1.74927E-1,-1.0648113E0,-6.153082E-1,-1.1695299E0,3.8328537E-1,-1.0251248E0,-4.762504E-2,3.102015E-1,-2.5546983E-1,-9.0026015E-1,-1.8243629E-1,-7.2598225E-1,-9.4385976E-1,-5.8403623E-1,-9.5456485E-3,-1.2701372E0,-9.2363554E-1,-2.7730152E-1,-8.779702E-1,2.4644198E-2,6.1626207E-2,-4.2377496E-1,5.9850674E-2,-5.084076E-2,-1.1340168E0,-6.872304E-1,2.735583E-2,-8.539451E-1,-3.336492E-1,-1.1736029E0,-1.0505888E-2,3.9369527E-2,-1.0474222E0,-5.556161E-1,-3.731171E-2,3.76273E-2,-5.316881E-2,1.4562999E-2,-1.955977E-2,-4.7269586E-2,2.9388214E-2,-1.4254508E-2,2.2721266E-2,-4.3917183E-2,-1.5815971E-2,-5.6102272E-2,3.549915E-2,-3.0090386E-2,-9.763853E-3,-6.4582996E-2,-5.2423894E-2,-2.9638566E-3,3.031828E-2,-3.457762E-2,-4.6319395E-2,-1.9181134E-2,-3.6113072E-2,2.248673E-2,-5.7330754E-2,1.2300985E-3,1.2440905E-2,-3.913143E-2,-5.1022578E-2,-5.0206273E-3,-3.586405E-2,1.01130875E-2,-5.9372514E-2,-4.1390654E-2,-5.2809626E-2,-8.484769E-3,3.0492557E-2,-3.575554E-2],"categories":[],"categories_nodes":[],"categories_segments":[],"categories_sizes":[],"default_left":[0,0,0,0,0,0,0,0,0,0,0,0,0,0,0,0,0,0,0,0,0,0,0,0,0,0,0,0,0,0,0,0,0,0,0,0,0,0,0,0,0,0,0,0,0,0,0,0,0,0,0,0,0,0,0,0,0,0,0,0,0,0,0,0,0,0,0,0,0,0,0,0,0,0,0,0,0,0,0,0,0,0,0,0,0,0,0,0,0,0,0,0,0,0,0,0,0],"id":16,"left_children":[1,3,5,7,9,11,13,15,17,19,21,23,25,27,29,31,33,35,37,39,41,-1,-1,43,45,47,49,51,53,55,57,-1,59,61,63,65,67,69,71,-1,73,75,77,79,-1,-1,81,-1,-1,83,85,-1,87,89,91,-1,-1,93,95,-1,-1,-1,-1,-1,-1,-1,-1,-1,-1,-1,-1,-1,-1,-1,-1,-1,-1,-1,-1,-1,-1,-1,-1,-1,-1,-1,-1,-1,-1,-1,-1,-1,-1,-1,-1,-1,-1],"loss_changes":[2.907898E1,7.5315094E0,6.317383E0,4.576996E0,2.2492905E0,4.7108765E0,2.6142578E0,2.5903168E0,5.406891E0,2.5462418E0,2.0709653E0,6.661194E0,2.929306E0,1.5285645E0,4.926361E0,3.066544E0,2.7965012E0,5.0135746E0,3.734871E0,1.5985489E0,1.759409E0,0E0,0E0,4.6268463E0,6.5527635E0,7.259542E0,3.341507E0,3.1214151E0,9.425049E-1,8.9171547E-1,2.9978333E0,0E0,3.037027E0,4.3608294E0,2.2438507E0,4.5167894E0,4.9763746E0,4.650303E0,3.1465187E0,0E0,7.201004E-1,1.737894E0,3.4022064E0,3.0930252E0,0E0,0E0,5.298626E0,0E0,0E0,1.9511261E0,2.6026812E0,0E0,9.425607E-1,8.229816E-1,8.822632E-1,0E0,0E0,2.3250427E0,3.7138224E0,0E0,0E0,0E0,0E0,0E0,0E0,0E0,0E0,0E0,0E0,0E0,0E0,0E0,0E0,0E0,0E0,0E0,0E0,0E0,0E0,0E0,0E0,0E0,0E0,0E0,0E0,0E0,0E0,0E0,0E0,0E0,0E0,0E0,0E0,0E0,0E0,0E0,0E0],"parents":[2147483647,0,0,1,1,2,2,3,3,4,4,5,5,6,6,7,7,8,8,9,9,10,10,11,11,12,12,13,13,14,14,15,15,16,16,17,17,18,18,19,19,20,20,23,23,24,24,25,25,26,26,27,27,28,28,29,29,30,30,32,32,33,33,34,34,35,35,36,36,37,37,38,38,40,40,41,41,42,42,43,43,46,46,49,49,50,50,52,52,53,53,54,54,57,57,58,58],"right_children":[2,4,6,8,10,12,14,16,18,20,22,24,26,28,30,32,34,36,38,40,42,-1,-1,44,46,48,50,52,54,56,58,-1,60,62,64,66,68,70,72,-1,74,76,78,80,-1,-1,82,-1,-1,84,86,-1,88,90,92,-1,-1,94,96,-1,-1,-1,-1,-1,-1,-1,-1,-1,-1,-1,-1,-1,-1,-1,-1,-1,-1,-1,-1,-1,-1,-1,-1,-1,-1,-1,-1,-1,-1,-1,-1,-1,-1,-1,-1,-1,-1],"split_conditions":[-6.3674515E-1,